{"learner":{"attributes":{"scikit_learn":"{\"_estimator_type\": \"classifier\"}"},"feature_names":["Age","Sex","Job","Housing","Saving accounts","Checking account","Credit amount","Duration"],"feature_types":["int","int","int","int","int","int","int","int"],"gradient_booster":{"model":{"gbtree_model_param":{"num_parallel_tree":"1","num_trees":"114"},"iteration_indptr":[0,1,2,3,4,5,6,7,8,9,10,11,12,13,14,15,16,17,18,19,20,21,22,23,24,25,26,27,28,29,30,31,32,33,34,35,36,37,38,39,40,41,42,43,44,45,46,47,48,49,50,51,52,53,54,55,56,57,58,59,60,61,62,63,64,65,66,67,68,69,70,71,72,73,74,75,76,77,78,79,80,81,82,83,84,85,86,87,88,89,90,91,92,93,94,95,96,97,98,99,100,101,102,103,104,105,106,107,108,109,110,111,112,113,114],"tree_info":[0,0,0,0,0,0,0,0,0,0,0,0,0,0,0,0,0,0,0,0,0,0,0,0,0,0,0,0,0,0,0,0,0,0,0,0,0,0,0,0,0,0,0,0,0,0,0,0,0,0,0,0,0,0,0,0,0,0,0,0,0,0,0,0,0,0,0,0,0,0,0,0,0,0,0,0,0,0,0,0,0,0,0,0,0,0,0,0,0,0,0,0,0,0,0,0,0,0,0,0,0,0,0,0,0,0,0,0,0,0,0,0,0,0],"trees":[{"base_weights":[-4.56621E-2,2.6031747E-1,-8.031496E-1,9.5E-1,2.5104603E-2,-1.6021049E-1,-4.8101267E-1,6.0606062E-2,1.888756E-1,-3.2258064E-1,2.4E-1,-1.0526316E-1,-1.2307693E0,-6.086956E-1,1.4876688E-1,-5.822785E-1,8.888889E-1,5.0666666E-1,-2.5316456E-2,-3.2E-1,1.1833729E-1,-0E0,-1.8933967E-1,-0E0,-9.591548E-2,1.0013155E-1,-1.0413682E-1,-0E0,1.4876688E-1,9.01184E-2,9.642297E-3,-2.5667524E-2,1.3017102E-1,1.7356137E-2,-1.0847584E-1],"categories":[],"categories_nodes":[],"categories_segments":[],"categories_sizes":[],"default_left":[0,0,0,0,0,0,0,0,0,0,0,0,0,0,0,0,0,0,0,0,0,0,0,0,0,0,0,0,0,0,0,0,0,0,0],"id":0,"left_children":[1,3,5,7,9,-1,11,13,-1,15,17,19,21,23,-1,25,27,29,31,33,-1,-1,-1,-1,-1,-1,-1,-1,-1,-1,-1,-1,-1,-1,-1],"loss_changes":[2.5588512E1,1.2751148E1,3.7816143E0,8.823442E0,4.5416985E0,0E0,5.434429E0,6.6715603E0,0E0,7.8324037E0,2.6659915E0,3.3948326E0,1.7902098E0,4.4851255E-1,0E0,6.4268737E0,1.0158732E0,1.4544725E0,3.6774826E0,3.0199997E0,0E0,0E0,0E0,0E0,0E0,0E0,0E0,0E0,0E0,0E0,0E0,0E0,0E0,0E0,0E0],"parents":[2147483647,0,0,1,1,2,2,3,3,4,4,6,6,7,7,9,9,10,10,11,11,12,12,13,13,15,15,16,16,17,17,18,18,19,19],"right_children":[2,4,6,8,10,-1,12,14,-1,16,18,20,22,24,-1,26,28,30,32,34,-1,-1,-1,-1,-1,-1,-1,-1,-1,-1,-1,-1,-1,-1,-1],"split_conditions":[2.6E1,1.2E1,3E1,1E0,1E0,-1.6021049E-1,4.8E1,3.6E1,1.888756E-1,4E1,3.3E1,3.9E1,3.2E1,2.4E1,1.4876688E-1,2.3E1,1E0,2.2E1,6.3E1,4.1E1,1.1833729E-1,-0E0,-1.8933967E-1,-0E0,-9.591548E-2,1.0013155E-1,-1.0413682E-1,-0E0,1.4876688E-1,9.01184E-2,9.642297E-3,-2.5667524E-2,1.3017102E-1,1.7356137E-2,-1.0847584E-1],"split_indices":[7,7,0,1,1,0,7,0,0,0,0,7,0,0,0,0,3,7,0,0,0,0,0,0,0,0,0,0,0,0,0,0,0,0,0],"split_type":[0,0,0,0,0,0,0,0,0,0,0,0,0,0,0,0,0,0,0,0,0,0,0,0,0,0,0,0,0,0,0,0,0,0,0],"sum_hessian":[1.085E2,7.775E1,3.075E1,1.9E1,5.875E1,1.2E1,1.875E1,7.25E0,1.175E1,2.225E1,3.65E1,1.325E1,5.5E0,4.75E0,2.5E0,1.875E1,3.5E0,1.775E1,1.875E1,1.15E1,1.75E0,1E0,4.5E0,1E0,3.75E0,2.25E0,1.65E1,1E0,2.5E0,1.2E1,5.75E0,1.675E1,2E0,6.5E0,5E0],"tree_param":{"num_deleted":"0","num_feature":"8","num_nodes":"35","size_leaf_vector":"1"}},{"base_weights":[1.0383416E-3,-2.95719E-1,3.226682E-1,-4.676777E-1,1.2033344E-1,4.572337E-1,-3.2771283E-1,-1.5562345E-1,-3.5010105E-1,3.198651E-1,9.330085E-1,-7.7323414E-2,7.367136E-2,-6.871166E-1,-1.2196947E-1,-6.9205575E-2,4.9772555E-1,3.7463725E-2,1.387956E-1,-1.2927149E-1,-6.338499E-2,5.8297805E-2,-4.272894E-2,1.930922E-2,-6.687623E-2,-3.8926005E-2,7.550309E-2],"categories":[],"categories_nodes":[],"categories_segments":[],"categories_sizes":[],"default_left":[0,0,0,0,0,0,0,0,0,0,0,0,0,0,0,0,0,0,0,0,0,0,0,0,0,0,0],"id":1,"left_children":[1,3,5,7,-1,9,11,-1,13,15,17,-1,-1,19,21,23,25,-1,-1,-1,-1,-1,-1,-1,-1,-1,-1],"loss_changes":[1.0607284E1,1.2560399E1,4.8172555E0,3.9739866E0,0E0,2.6168118E0,2.6506157E0,0E0,3.4223623E0,2.5349026E0,5.074253E-1,0E0,0E0,6.307335E-1,3.4865403E0,1.2574073E0,1.807611E0,0E0,0E0,0E0,0E0,0E0,0E0,0E0,0E0,0E0,0E0],"parents":[2147483647,0,0,1,1,2,2,3,3,5,5,6,6,8,8,9,9,10,10,13,13,14,14,15,15,16,16],"right_children":[2,4,6,8,-1,10,12,-1,14,16,18,-1,-1,20,22,24,26,-1,-1,-1,-1,-1,-1,-1,-1,-1,-1],"split_conditions":[1E0,3E0,3E0,1E0,1.2033344E-1,2E0,2E0,-1.5562345E-1,1E0,1E0,2E0,-7.7323414E-2,7.367136E-2,2E0,2E0,2E0,1E0,3.7463725E-2,1.387956E-1,-1.2927149E-1,-6.338499E-2,5.8297805E-2,-4.272894E-2,1.930922E-2,-6.687623E-2,-3.8926005E-2,7.550309E-2],"split_indices":[5,2,2,3,0,5,3,0,1,1,2,0,0,2,2,3,3,0,0,0,0,0,0,0,0,0,0],"split_type":[0,0,0,0,0,0,0,0,0,0,0,0,0,0,0,0,0,0,0,0,0,0,0,0,0,0,0],"sum_hessian":[1.0913413E2,5.680374E1,5.233039E1,5.032762E1,6.4761214E0,4.3605316E1,8.725075E0,5.7241883E0,4.460343E1,3.5133625E1,8.47169E0,6.9803433E0,1.7447319E0,1.7192808E1,2.7410625E1,1.121395E1,2.3919676E1,1.9909792E0,6.4807115E0,5.2331047E0,1.1959703E1,6.9742494E0,2.0436377E1,7.9767947E0,3.2371557E0,1.992978E0,2.1926697E1],"tree_param":{"num_deleted":"0","num_feature":"8","num_nodes":"27","size_leaf_vector":"1"}},{"base_weights":[-1.0746433E-2,2.80953E-1,-7.539738E-1,1.3482735E-1,8.4037656E-1,-8.657299E-1,-2.7329412E-1,7.5260895E-1,-7.569461E-2,4.841262E-1,1.3841097E-1,-1.2302415E0,-6.134416E-1,2.4913922E-2,-5.2070594E-1,8.8935804E-1,-1.952789E-2,1.853409E-1,-2.8536612E-1,-2.6420338E-2,6.417508E-1,-1.764947E-1,-5.842647E-2,-1.5247786E-1,-1.0868372E0,7.1065393E-3,-1.0193957E-1,1.455851E-1,8.0257334E-2,6.4682243E-3,6.518799E-2,-5.1220324E-2,3.9600946E-2,1.2429806E-2,1.1603323E-1,-4.532158E-2,8.23712E-2,-1.5741466E-1,-4.362432E-2],"categories":[],"categories_nodes":[],"categories_segments":[],"categories_sizes":[],"default_left":[0,0,0,0,0,0,0,0,0,0,0,0,0,0,0,0,0,0,0,0,0,0,0,0,0,0,0,0,0,0,0,0,0,0,0,0,0,0,0],"id":2,"left_children":[1,3,5,7,9,11,13,15,17,19,-1,21,23,-1,25,27,-1,29,31,-1,33,-1,-1,35,37,-1,-1,-1,-1,-1,-1,-1,-1,-1,-1,-1,-1,-1,-1],"loss_changes":[2.3479244E1,6.2466784E0,1.4029503E0,8.234838E0,7.49732E-1,1.4801922E0,9.295906E-1,2.1173391E0,2.6694214E0,9.928193E-1,0E0,2.6957512E-1,3.4035578E0,0E0,7.9448175E-1,1.9166946E-1,0E0,9.1227764E-1,1.8348036E0,0E0,8.31079E-1,0E0,0E0,1.6725432E0,3.2249165E-1,0E0,0E0,0E0,0E0,0E0,0E0,0E0,0E0,0E0,0E0,0E0,0E0,0E0,0E0],"parents":[2147483647,0,0,1,1,2,2,3,3,4,4,5,5,6,6,7,7,8,8,9,9,11,11,12,12,14,14,15,15,17,17,18,18,20,20,23,23,24,24],"right_children":[2,4,6,8,10,12,14,16,18,20,-1,22,24,-1,26,28,-1,30,32,-1,34,-1,-1,36,38,-1,-1,-1,-1,-1,-1,-1,-1,-1,-1,-1,-1,-1,-1],"split_conditions":[2.6E1,1E0,3E0,1.2E1,2E0,3.6E1,3.1E1,3E0,1.6E1,2E0,1.3841097E-1,1E0,4.5E1,2.4913922E-2,1E0,9E0,-1.952789E-2,1.3E1,3E0,-2.6420338E-2,1.6E1,-1.764947E-1,-5.842647E-2,4.2E1,1E0,7.1065393E-3,-1.0193957E-1,1.455851E-1,8.0257334E-2,6.4682243E-3,6.518799E-2,-5.1220324E-2,3.9600946E-2,1.2429806E-2,1.1603323E-1,-4.532158E-2,8.23712E-2,-1.5741466E-1,-4.362432E-2],"split_indices":[7,4,2,7,4,7,7,2,7,2,0,4,7,0,3,7,0,7,2,0,7,0,0,7,4,0,0,0,0,0,0,0,0,0,0,0,0,0,0],"split_type":[0,0,0,0,0,0,0,0,0,0,0,0,0,0,0,0,0,0,0,0,0,0,0,0,0,0,0,0,0,0,0,0,0,0,0,0,0,0,0],"sum_hessian":[1.06322525E2,7.680165E1,2.9520876E1,6.187932E1,1.4922331E1,2.3302158E1,6.2187176E0,1.5072817E1,4.68065E1,6.964396E0,7.9579344E0,7.9457054E0,1.5356453E1,2.2392962E0,3.9794211E0,1.3102474E1,1.9703431E0,2.0901155E1,2.5905346E1,1.2458825E0,5.7185135E0,6.211837E0,1.7338687E0,8.45023E0,6.9062233E0,1.4946363E0,2.4847848E0,5.437384E0,7.66509E0,1.5425352E1,5.475804E0,2.2172047E1,3.733298E0,2.22728E0,3.4912338E0,7.2100806E0,1.2401491E0,5.415331E0,1.4908925E0],"tree_param":{"num_deleted":"0","num_feature":"8","num_nodes":"39","size_leaf_vector":"1"}},{"base_weights":[8.294006E-3,-7.9940215E-2,8.08406E-1,-1.5591975E-1,7.4647933E-1,4.5254278E-1,1.5668027E-1,-5.149223E-1,3.0384135E-2,1.9638276E-1,1.0770652E0,7.116518E-1,-3.2932248E-2,-6.496039E-1,3.0556324E-1,-1.5118922E-1,2.7344632E-1,6.884335E-2,-2.695036E-2,1.7865963E-1,8.460684E-3,1.3904554E-1,3.735467E-1,1.9291548E-2,-9.670876E-2,1.3063629E-1,-2.1839304E-2,-7.11246E-2,3.952683E-2,4.691496E-2,-9.472744E-2,1.2087943E-2,7.965855E-2],"categories":[],"categories_nodes":[],"categories_segments":[],"categories_sizes":[],"default_left":[0,0,0,0,0,0,0,0,0,0,0,0,0,0,0,0,0,0,0,0,0,0,0,0,0,0,0,0,0,0,0,0,0],"id":3,"left_children":[1,3,5,7,9,11,-1,13,15,17,19,21,-1,23,25,27,29,-1,-1,-1,-1,-1,31,-1,-1,-1,-1,-1,-1,-1,-1,-1,-1],"loss_changes":[7.900307E0,6.450569E0,1.0185256E0,6.24992E0,1.3644977E0,1.5421462E0,0E0,3.7237148E0,2.7912927E0,7.098861E-1,1.4626737E0,2.8950357E-1,0E0,2.1743822E0,1.8792446E0,6.692862E0,2.6129873E0,0E0,0E0,0E0,0E0,0E0,2.4225163E-1,0E0,0E0,0E0,0E0,0E0,0E0,0E0,0E0,0E0,0E0],"parents":[2147483647,0,0,1,1,2,2,3,3,4,4,5,5,7,7,8,8,9,9,10,10,11,11,13,13,14,14,15,15,16,16,22,22],"right_children":[2,4,6,8,10,12,-1,14,16,18,20,22,-1,24,26,28,30,-1,-1,-1,-1,-1,32,-1,-1,-1,-1,-1,-1,-1,-1,-1,-1],"split_conditions":[2E0,2E0,3.9E1,1E0,3.1E1,3.4E1,1.5668027E-1,4.3E1,1E0,2.4E1,5.3E1,2.5E1,-3.2932248E-2,2.3E1,5E1,3.6E1,5.6E1,6.884335E-2,-2.695036E-2,1.7865963E-1,8.460684E-3,1.3904554E-1,2.9E1,1.9291548E-2,-9.670876E-2,1.3063629E-1,-2.1839304E-2,-7.11246E-2,3.952683E-2,4.691496E-2,-9.472744E-2,1.2087943E-2,7.965855E-2],"split_indices":[5,4,0,1,0,0,0,0,5,0,0,0,0,0,0,0,0,0,0,0,0,0,0,0,0,0,0,0,0,0,0,0,0],"split_type":[0,0,0,0,0,0,0,0,0,0,0,0,0,0,0,0,0,0,0,0,0,0,0,0,0,0,0,0,0,0,0,0,0],"sum_hessian":[1.09991325E2,9.987722E1,1.0114105E1,9.221085E1,7.666369E0,6.450908E0,3.6631973E0,3.0901196E1,6.1309654E1,3.4761245E0,4.1902447E0,4.7118154E0,1.7390925E0,2.672293E1,4.178265E0,3.531012E1,2.5999537E1,1.7351298E0,1.7409947E0,2.9677827E0,1.2224617E0,1.2424154E0,3.4694002E0,2.7372227E0,2.3985708E1,1.2357478E0,2.9425175E0,1.8786013E1,1.6524107E1,2.451049E1,1.4890456E0,2.2315845E0,1.2378156E0],"tree_param":{"num_deleted":"0","num_feature":"8","num_nodes":"33","size_leaf_vector":"1"}},{"base_weights":[3.5234727E-2,-3.0190561E-2,7.119157E-1,-3.1987736E-1,1.2666568E-1,4.542728E-2,1.0305263E0,-4.444886E-1,3.6470515E-1,9.288267E-2,7.1926826E-1,6.32519E-2,-5.954034E-2,1.6049069E-1,2.4018202E-2,2.5074825E-1,-5.277072E-1,1.5127967E-1,-3.7267664E-1,1.6597098E-1,-8.699864E-1,1.2920609E-1,1.6213985E-2,-1.6430797E-3,5.380341E-2,-7.640326E-2,-4.810138E-2,-1.2585947E-1,3.2267552E-2,-2.7218033E-2,2.989226E-2,-4.3766413E-2,-1.3152158E-1],"categories":[],"categories_nodes":[],"categories_segments":[],"categories_sizes":[],"default_left":[0,0,0,0,0,0,0,0,0,0,0,0,0,0,0,0,0,0,0,0,0,0,0,0,0,0,0,0,0,0,0,0,0],"id":4,"left_children":[1,3,5,7,9,11,13,15,17,19,21,-1,-1,-1,-1,23,25,-1,27,29,31,-1,-1,-1,-1,-1,-1,-1,-1,-1,-1,-1,-1],"loss_changes":[4.9201465E0,4.6686444E0,2.033299E0,3.2383885E0,1.2703575E0,1.1556848E0,8.9942884E-1,1.9234977E0,4.021591E0,4.67213E0,4.3779778E-1,0E0,0E0,0E0,0E0,1.7595601E-1,4.5214176E-2,0E0,1.6880426E0,1.4960282E0,1.243186E-2,0E0,0E0,0E0,0E0,0E0,0E0,0E0,0E0,0E0,0E0,0E0,0E0],"parents":[2147483647,0,0,1,1,2,2,3,3,4,4,5,5,6,6,7,7,8,8,9,9,10,10,15,15,16,16,18,18,19,19,20,20],"right_children":[2,4,6,8,10,12,14,16,18,20,22,-1,-1,-1,-1,24,26,-1,28,30,32,-1,-1,-1,-1,-1,-1,-1,-1,-1,-1,-1,-1],"split_conditions":[2E0,1E0,2.9E1,4.3E1,6.3E1,2.4E1,5.5E1,2.3E1,5.1E1,5.3E1,6.6E1,6.32519E-2,-5.954034E-2,1.6049069E-1,2.4018202E-2,2E0,3E1,1.5127967E-1,1E0,1E0,5.6E1,1.2920609E-1,1.6213985E-2,-1.6430797E-3,5.380341E-2,-7.640326E-2,-4.810138E-2,-1.2585947E-1,3.2267552E-2,-2.7218033E-2,2.989226E-2,-4.3766413E-2,-1.3152158E-1],"split_indices":[4,1,0,0,0,0,0,0,0,0,0,0,0,0,0,3,0,0,3,3,0,0,0,0,0,0,0,0,0,0,0,0,0],"split_type":[0,0,0,0,0,0,0,0,0,0,0,0,0,0,0,0,0,0,0,0,0,0,0,0,0,0,0,0,0,0,0,0,0],"sum_hessian":[1.09648895E2,1.00853226E2,8.795668E0,3.5061428E1,6.5791794E1,3.2143276E0,5.5813403E0,2.9958874E1,5.1025543E0,6.3337784E1,2.4540148E0,1.7313083E0,1.4830191E0,4.1348186E0,1.4465218E0,2.9874623E0,2.6971413E1,2.174661E0,2.9278932E0,5.9638447E1,3.6993344E0,1.2229408E0,1.2310739E0,1.4923325E0,1.4951298E0,1.7650795E1,9.320617E0,1.2106267E0,1.7172666E0,8.323056E0,5.131539E1,1.4773457E0,2.2219887E0],"tree_param":{"num_deleted":"0","num_feature":"8","num_nodes":"33","size_leaf_vector":"1"}},{"base_weights":[4.868794E-2,2.853803E-1,-5.2315843E-1,-3.1175321E-2,4.8739114E-1,-2.8059125E-1,-1.303987E-1,8.539261E-1,-1.6148244E-1,6.458738E-1,1.3049971E-2,-1.1830821E-1,3.7443155E-1,1.3638851E-1,4.678621E-2,-5.6803215E-1,1.0325195E-1,1.3426186E-1,4.7187957E-1,-1.8630812E-1,1.342852E-1,-2.5229168E-1,9.312714E-1,-2.3388663E-2,-1.591439E-1,1.1391358E-1,-3.3758707E-2,-6.6947187E-3,8.480276E-2,1.3716938E-2,-1.5217268E-1,3.8574E-2,-7.9010755E-2,1.3994068E-1,5.228397E-2],"categories":[],"categories_nodes":[],"categories_segments":[],"categories_sizes":[],"default_left":[0,0,0,0,0,0,0,0,0,0,0,0,0,0,0,0,0,0,0,0,0,0,0,0,0,0,0,0,0,0,0,0,0,0,0],"id":5,"left_children":[1,3,5,7,9,11,-1,13,15,17,19,-1,21,-1,-1,23,25,-1,27,29,-1,31,33,-1,-1,-1,-1,-1,-1,-1,-1,-1,-1,-1,-1],"loss_changes":[1.468761E1,4.914527E0,3.410205E0,3.688555E0,3.5119429E0,9.596022E0,0E0,1.7346144E-2,3.037342E0,1.8666439E0,2.7808473E0,0E0,4.3247705E0,0E0,0E0,2.5938606E0,5.1547604E0,0E0,2.4785056E0,3.4220476E0,0E0,1.4058666E0,5.6977272E-2,0E0,0E0,0E0,0E0,0E0,0E0,0E0,0E0,0E0,0E0,0E0,0E0],"parents":[2147483647,0,0,1,1,2,2,3,3,4,4,5,5,7,7,8,8,9,9,10,10,12,12,15,15,16,16,18,18,19,19,21,21,22,22],"right_children":[2,4,6,8,10,12,-1,14,16,18,20,-1,22,-1,-1,24,26,-1,28,30,-1,32,34,-1,-1,-1,-1,-1,-1,-1,-1,-1,-1,-1,-1],"split_conditions":[3.963E3,1.377E3,7.763E3,6.09E2,2E0,5.29E3,-1.303987E-1,4.28E2,9.76E2,1.882E3,3.446E3,-1.1830821E-1,1E0,1.3638851E-1,4.678621E-2,8.88E2,1.175E3,1.3426186E-1,2.241E3,3.031E3,1.342852E-1,1E0,6.416E3,-2.3388663E-2,-1.591439E-1,1.1391358E-1,-3.3758707E-2,-6.6947187E-3,8.480276E-2,1.3716938E-2,-1.5217268E-1,3.8574E-2,-7.9010755E-2,1.3994068E-1,5.228397E-2],"split_indices":[6,6,6,6,3,6,0,6,6,6,6,0,5,0,0,6,6,0,6,6,0,3,6,0,0,0,0,0,0,0,0,0,0,0,0],"split_type":[0,0,0,0,0,0,0,0,0,0,0,0,0,0,0,0,0,0,0,0,0,0,0,0,0,0,0,0,0,0,0,0,0,0,0],"sum_hessian":[1.0641139E2,7.561472E1,3.0796667E1,2.978563E1,4.5829094E1,2.1490692E1,9.305976E0,3.1097438E0,2.6675884E1,3.4080723E1,1.174837E1,1.0771494E1,1.0719198E1,1.4302825E0,1.6794614E0,1.0068355E1,1.660753E1,9.065217E0,2.5015507E1,1.0508639E1,1.2397301E0,5.3004565E0,5.418741E0,7.118996E0,2.9493582E0,4.8563366E0,1.1751194E1,6.5738263E0,1.844168E1,8.791852E0,1.7167871E0,2.1458235E0,3.154633E0,3.4517725E0,1.9669688E0],"tree_param":{"num_deleted":"0","num_feature":"8","num_nodes":"35","size_leaf_vector":"1"}},{"base_weights":[3.1628285E-3,-6.490632E-2,7.5488466E-1,-1.3978821E-1,6.6702425E-1,1.333401E-1,1.0306184E0,-1.7587624E-1,7.7047324E-1,-5.9914317E-5,8.100768E-1,8.087536E-2,-5.252089E-2,1.6452809E-1,2.0343486E-2,-3.1028882E-1,1.3907178E-2,1.3107136E-1,2.1580549E-2,1.5346685E-1,2.9495195E-1,-5.7216726E-2,8.8491224E-2,1.3812911E-2,-4.23337E-2,-6.17645E-2,1.0572377E-1],"categories":[],"categories_nodes":[],"categories_segments":[],"categories_sizes":[],"default_left":[0,0,0,0,0,0,0,0,0,0,0,0,0,0,0,0,0,0,0,0,0,0,0,0,0,0,0],"id":6,"left_children":[1,3,5,7,9,11,13,15,17,-1,19,-1,-1,-1,-1,21,23,-1,-1,-1,25,-1,-1,-1,-1,-1,-1],"loss_changes":[5.5864353E0,5.582499E0,1.416111E0,3.1473155E0,9.0449715E-1,1.2812302E0,1.0531039E0,2.2747123E0,3.595202E-1,0E0,1.1340866E0,0E0,0E0,0E0,0E0,6.972387E0,1.2183012E0,0E0,0E0,0E0,2.211214E0,0E0,0E0,0E0,0E0,0E0,0E0],"parents":[2147483647,0,0,1,1,2,2,3,3,4,4,5,5,6,6,7,7,8,8,10,10,15,15,16,16,20,20],"right_children":[2,4,6,8,10,12,14,16,18,-1,20,-1,-1,-1,-1,22,24,-1,-1,-1,26,-1,-1,-1,-1,-1,-1],"split_conditions":[2E0,2E0,2.9E1,6.3E1,2E0,2.4E1,5.5E1,1E0,6.7E1,-5.9914317E-5,3.2E1,8.087536E-2,-5.252089E-2,1.6452809E-1,2.0343486E-2,3E0,3E0,1.3107136E-1,2.1580549E-2,1.5346685E-1,3.9E1,-5.7216726E-2,8.8491224E-2,1.3812911E-2,-4.23337E-2,-6.17645E-2,1.0572377E-1],"split_indices":[4,5,0,0,2,0,0,5,0,0,0,0,0,0,0,2,2,0,0,0,0,0,0,0,0,0,0],"split_type":[0,0,0,0,0,0,0,0,0,0,0,0,0,0,0,0,0,0,0,0,0,0,0,0,0,0,0],"sum_hessian":[1.0721847E2,9.915366E1,8.064805E0,9.0684944E1,8.468723E0,2.9342208E0,5.1305842E0,8.8002785E1,2.682154E0,1.6705769E0,6.7981467E0,1.4546118E0,1.479609E0,3.698128E0,1.4324564E0,5.114488E1,3.685791E1,1.4499942E0,1.2321597E0,3.210429E0,3.5877175E0,4.573059E1,5.4142857E0,2.9518917E1,7.3389935E0,1.4754739E0,2.1122437E0],"tree_param":{"num_deleted":"0","num_feature":"8","num_nodes":"27","size_leaf_vector":"1"}},{"base_weights":[4.0303424E-2,2.72275E-1,-5.353925E-1,6.916871E-1,1.3317682E-1,-3.711177E-1,-1.2654759E-1,1.651141E-2,1.3637845E-1,-1.04910925E-1,4.1899848E-1,-7.1162784E-1,-5.486653E-2,5.2737015E-1,-6.1005183E-2,-3.2345095E-1,4.4490702E-2,3.0244E-1,7.7759194E-1,-4.463912E-2,-1.03339195E-1,-4.2725873E-1,3.1864485E-1,8.438606E-2,1.6207783E-2,-6.828283E-2,4.420353E-3,3.619259E-2,-1.1155856E-1,5.301516E-2,6.7998115E-3,1.3070762E-1,3.3724383E-2,-6.402799E-2,-2.0719493E-2,-2.957775E-2,6.389897E-2],"categories":[],"categories_nodes":[],"categories_segments":[],"categories_sizes":[],"default_left":[0,0,0,0,0,0,0,0,0,0,0,0,0,0,0,0,0,0,0,0,0,0,0,0,0,0,0,0,0,0,0,0,0,0,0,0,0],"id":7,"left_children":[1,3,5,7,9,11,-1,13,-1,15,17,19,21,23,-1,25,27,29,31,-1,-1,33,35,-1,-1,-1,-1,-1,-1,-1,-1,-1,-1,-1,-1,-1,-1],"loss_changes":[1.4418561E1,4.3908596E0,1.8658628E0,4.5254183E0,4.0551004E0,2.5636168E0,0E0,2.116149E0,0E0,1.0904348E0,8.9279556E-1,7.813501E-2,2.0297961E0,1.21103644E-1,0E0,9.883883E-1,4.544732E0,5.5585957E-1,4.4267845E-1,0E0,0E0,4.720545E-2,8.044447E-1,0E0,0E0,0E0,0E0,0E0,0E0,0E0,0E0,0E0,0E0,0E0,0E0,0E0,0E0],"parents":[2147483647,0,0,1,1,2,2,3,3,4,4,5,5,7,7,9,9,10,10,11,11,12,12,13,13,15,15,16,16,17,17,18,18,21,21,22,22],"right_children":[2,4,6,8,10,12,-1,14,-1,16,18,20,22,24,-1,26,28,30,32,-1,-1,34,36,-1,-1,-1,-1,-1,-1,-1,-1,-1,-1,-1,-1,-1,-1],"split_conditions":[2.6E1,1.2E1,4.8E1,1E0,1E0,3.6E1,-1.2654759E-1,8E0,1.3637845E-1,1E0,2E0,2.8E1,1E0,1E0,-6.1005183E-2,2E0,2E0,2.1E1,1.6E1,-4.463912E-2,-1.03339195E-1,4.2E1,1E0,8.438606E-2,1.6207783E-2,-6.828283E-2,4.420353E-3,3.619259E-2,-1.1155856E-1,5.301516E-2,6.7998115E-3,1.3070762E-1,3.3724383E-2,-6.402799E-2,-2.0719493E-2,-2.957775E-2,6.389897E-2],"split_indices":[7,7,7,1,5,7,0,7,0,1,5,7,5,5,0,3,3,7,7,0,0,7,3,0,0,0,0,0,0,0,0,0,0,0,0,0,0],"split_type":[0,0,0,0,0,0,0,0,0,0,0,0,0,0,0,0,0,0,0,0,0,0,0,0,0,0,0,0,0,0,0,0,0,0,0,0,0],"sum_hessian":[1.0587616E2,7.584296E1,3.0033197E1,1.7899452E1,5.794351E1,2.3168821E1,6.8643765E0,6.5407987E0,1.1358654E1,3.1956709E1,2.59868E1,1.0554504E1,1.2614316E1,3.1436636E0,3.3971348E0,1.25028925E1,1.9453815E1,2.1003239E1,4.98356E0,2.8678024E0,7.686702E0,6.244565E0,6.369751E0,1.9494457E0,1.194218E0,7.7015843E0,4.8013077E0,1.6000294E1,3.4535215E0,1.4359097E1,6.644142E0,2.816529E0,2.167031E0,4.3591247E0,1.8854403E0,1.4512364E0,4.9185147E0],"tree_param":{"num_deleted":"0","num_feature":"8","num_nodes":"37","size_leaf_vector":"1"}},{"base_weights":[1.9019881E-2,-3.69135E-2,6.6448903E-1,-1.4409032E-1,1.5578634E-1,1.6536723E-1,1.2994789E-1,-3.548852E-1,5.451763E-4,2.8885815E-1,-2.1552405E-1,4.744126E-2,-9.218365E-3,2.3989752E-1,-4.4137827E-1,1.2545809E-1,-4.7809714E-1,-7.0351385E-2,3.6862198E-1,-6.4934087E-1,5.767244E-1,-1.7483081E-3,5.162463E-2,-7.1554065E-2,-3.9648663E-2,-2.1278863E-3,6.6830255E-2,-8.4411845E-2,1.4637163E-2,-5.1550087E-2,3.6191743E-2,6.580241E-2,2.883576E-2,-3.9540365E-2,-1.0652133E-1,1.2087965E-1,6.7282994E-3],"categories":[],"categories_nodes":[],"categories_segments":[],"categories_sizes":[],"default_left":[0,0,0,0,0,0,0,0,0,0,0,0,0,0,0,0,0,0,0,0,0,0,0,0,0,0,0,0,0,0,0,0,0,0,0,0,0],"id":8,"left_children":[1,3,5,7,9,11,-1,13,15,17,19,-1,-1,21,23,25,27,29,31,33,35,-1,-1,-1,-1,-1,-1,-1,-1,-1,-1,-1,-1,-1,-1,-1,-1],"loss_changes":[3.8778317E0,2.0705228E0,1.2616942E0,1.9588732E0,1.8372357E0,2.4354243E-1,0E0,1.45086E0,2.3976715E0,7.958834E-1,3.8286705E0,0E0,0E0,1.6279869E-1,1.759677E-1,1.7577562E0,9.079871E-1,7.593775E-1,3.3402586E-1,1.5813255E-1,7.068672E-1,0E0,0E0,0E0,0E0,0E0,0E0,0E0,0E0,0E0,0E0,0E0,0E0,0E0,0E0,0E0,0E0],"parents":[2147483647,0,0,1,1,2,2,3,3,4,4,5,5,7,7,8,8,9,9,10,10,13,13,14,14,15,15,16,16,17,17,18,18,19,19,20,20],"right_children":[2,4,6,8,10,12,-1,14,16,18,20,-1,-1,22,24,26,28,30,32,34,36,-1,-1,-1,-1,-1,-1,-1,-1,-1,-1,-1,-1,-1,-1,-1,-1],"split_conditions":[2E0,3.6E1,3.1E1,1E0,5.3E1,2.4E1,1.2994789E-1,2.3E1,3.3E1,1E0,6.3E1,4.744126E-2,-9.218365E-3,2E0,2.7E1,3E1,3.5E1,4.4E1,4.1E1,5.6E1,6.6E1,-1.7483081E-3,5.162463E-2,-7.1554065E-2,-3.9648663E-2,-2.1278863E-3,6.6830255E-2,-8.4411845E-2,1.4637163E-2,-5.1550087E-2,3.6191743E-2,6.580241E-2,2.883576E-2,-3.9540365E-2,-1.0652133E-1,1.2087965E-1,6.7282994E-3],"split_indices":[4,0,0,1,0,0,0,0,0,3,0,0,0,3,0,0,0,0,0,0,0,0,0,0,0,0,0,0,0,0,0,0,0,0,0,0,0],"split_type":[0,0,0,0,0,0,0,0,0,0,0,0,0,0,0,0,0,0,0,0,0,0,0,0,0,0,0,0,0,0,0,0,0,0,0,0,0],"sum_hessian":[1.05730034E2,9.8166214E1,7.56382E0,6.324341E1,3.4922802E1,3.6305385E0,3.9332814E0,2.5144146E1,3.8099262E1,2.5872545E1,9.050257E0,1.6752988E0,1.9552397E0,2.9670658E0,2.217708E1,3.0799343E1,7.2999215E0,4.7226233E0,2.1149923E1,5.9645762E0,3.0856807E0,1.4832919E0,1.483774E0,1.0692134E1,1.1484945E1,2.3256353E1,7.5429883E0,5.5893145E0,1.7106069E0,2.3702235E0,2.3523996E0,9.693258E0,1.1456664E1,2.8774295E0,3.0871468E0,1.38723E0,1.6984507E0],"tree_param":{"num_deleted":"0","num_feature":"8","num_nodes":"37","size_leaf_vector":"1"}},{"base_weights":[7.4751186E-3,9.495927E-2,-8.432192E-1,2.4269005E-2,5.741031E-1,-5.2484345E-1,-1.4150907E-1,-2.7223378E-1,1.4318065E-1,3.9558798E-1,1.2496621E-1,-7.671035E-1,2.2524368E-2,7.301641E-1,-4.402044E-1,3.2836232E-1,-3.140943E-1,6.586277E-1,-6.17697E-2,-9.931963E-3,-1.2700161E-1,1.19220145E-1,3.7640255E-2,-3.5941057E-2,-1.1659859E-1,-8.573955E-2,5.5242836E-2,-8.8916816E-2,2.3858367E-2,3.4166083E-2,1.4005435E-1],"categories":[],"categories_nodes":[],"categories_segments":[],"categories_sizes":[],"default_left":[0,0,0,0,0,0,0,0,0,0,0,0,0,0,0,0,0,0,0,0,0,0,0,0,0,0,0,0,0,0,0],"id":9,"left_children":[1,3,5,7,9,11,-1,13,15,17,-1,19,-1,21,23,25,27,29,-1,-1,-1,-1,-1,-1,-1,-1,-1,-1,-1,-1,-1],"loss_changes":[7.922442E0,3.2528772E0,2.002716E-1,3.0391629E0,4.7144985E-1,1.1876479E0,0E0,4.4806557E0,5.3016396E0,2.635377E0,0E0,6.193471E-1,0E0,5.632329E-2,1.380846E0,4.4672775E0,3.4665074E0,1.0751452E0,0E0,0E0,0E0,0E0,0E0,0E0,0E0,0E0,0E0,0E0,0E0,0E0,0E0],"parents":[2147483647,0,0,1,1,2,2,3,3,4,4,5,5,7,7,8,8,9,9,11,11,13,13,14,14,15,15,16,16,17,17],"right_children":[2,4,6,8,10,12,-1,14,16,18,-1,20,-1,22,24,26,28,30,-1,-1,-1,-1,-1,-1,-1,-1,-1,-1,-1,-1,-1],"split_conditions":[7.685E3,3E0,1.1816E4,1.289E3,5.29E3,1.055E4,-1.4150907E-1,6.09E2,3.913E3,3.872E3,1.2496621E-1,1E0,2.2524368E-2,4.28E2,1.207E3,1E0,5.293E3,2.101E3,-6.17697E-2,-9.931963E-3,-1.2700161E-1,1.19220145E-1,3.7640255E-2,-3.5941057E-2,-1.1659859E-1,-8.573955E-2,5.5242836E-2,-8.8916816E-2,2.3858367E-2,3.4166083E-2,1.4005435E-1],"split_indices":[6,2,6,6,6,6,0,6,6,6,0,3,0,6,6,3,6,6,0,0,0,0,0,0,0,0,0,0,0,0,0],"split_type":[0,0,0,0,0,0,0,0,0,0,0,0,0,0,0,0,0,0,0,0,0,0,0,0,0,0,0,0,0,0,0],"sum_hessian":[1.04376656E2,9.544917E1,8.927477E0,8.409318E1,1.1355997E1,5.239548E0,3.6879292E0,2.3702442E1,6.039074E1,9.148953E0,2.2070434E0,3.8157644E0,1.4237837E0,2.9214048E0,2.0781036E1,4.3184372E1,1.7206367E1,7.211839E0,1.9371141E0,1.201553E0,2.6142113E0,1.2980138E0,1.623391E0,1.6458294E1,4.322743E0,3.3092537E0,3.987512E1,9.66385E0,7.5425167E0,4.5352907E0,2.6765485E0],"tree_param":{"num_deleted":"0","num_feature":"8","num_nodes":"31","size_leaf_vector":"1"}},{"base_weights":[-1.8107139E-2,-8.226534E-2,5.7938576E-1,-2.0882872E-1,8.029441E-2,3.2207406E-1,1.1738246E-1,-3.1702796E-1,5.971051E-1,1.3926193E-1,-5.2100575E-1,5.6693596E-1,-3.9294258E-2,5.745875E-1,-3.9263842E-1,1.21774234E-1,1.9349235E-1,-1.0388458E-1,3.5096654E-1,-1.3873367E-1,3.45137E-2,1.162525E-1,2.771022E-1,1.1653964E-1,-6.980817E-4,-8.222487E-2,3.9413525E-3,6.105086E-2,-2.753168E-2,5.662591E-3,-1.3504136E-1,7.674673E-2,6.458044E-3,1.4242296E-3,6.946069E-2],"categories":[],"categories_nodes":[],"categories_segments":[],"categories_sizes":[],"default_left":[0,0,0,0,0,0,0,0,0,0,0,0,0,0,0,0,0,0,0,0,0,0,0,0,0,0,0,0,0,0,0,0,0,0,0],"id":10,"left_children":[1,3,5,7,9,11,-1,13,15,17,19,21,-1,23,25,-1,27,29,31,-1,-1,-1,33,-1,-1,-1,-1,-1,-1,-1,-1,-1,-1,-1,-1],"loss_changes":[4.0736594E0,1.9860353E0,5.646272E-1,4.906374E0,1.5838046E0,1.2846158E0,0E0,3.4847708E0,7.4082613E-1,2.075105E0,2.003127E0,2.8012598E-1,0E0,7.8318214E-1,4.5842667E0,0E0,5.833359E-1,2.687521E0,1.5095482E0,0E0,0E0,0E0,2.949098E-1,0E0,0E0,0E0,0E0,0E0,0E0,0E0,0E0,0E0,0E0,0E0,0E0],"parents":[2147483647,0,0,1,1,2,2,3,3,4,4,5,5,7,7,8,8,9,9,10,10,11,11,13,13,14,14,16,16,17,17,18,18,22,22],"right_children":[2,4,6,8,10,12,-1,14,16,18,20,22,-1,24,26,-1,28,30,32,-1,-1,-1,34,-1,-1,-1,-1,-1,-1,-1,-1,-1,-1,-1,-1],"split_conditions":[2E0,1E0,3.9E1,3E0,5.6E1,3.4E1,1.1738246E-1,2.3E1,3.9E1,3E1,6.3E1,2.5E1,-3.9294258E-2,2E0,3.6E1,1.21774234E-1,1E0,3E0,3.6E1,-1.3873367E-1,3.45137E-2,1.162525E-1,2.9E1,1.1653964E-1,-6.980817E-4,-8.222487E-2,3.9413525E-3,6.105086E-2,-2.753168E-2,5.662591E-3,-1.3504136E-1,7.674673E-2,6.458044E-3,1.4242296E-3,6.946069E-2],"split_indices":[5,5,0,2,0,0,0,0,0,0,0,0,0,3,0,0,3,2,0,0,0,0,0,0,0,0,0,0,0,0,0,0,0,0,0],"split_type":[0,0,0,0,0,0,0,0,0,0,0,0,0,0,0,0,0,0,0,0,0,0,0,0,0,0,0,0,0,0,0,0,0,0,0],"sum_hessian":[1.0402398E2,9.4715805E1,9.308175E0,5.3094017E1,4.1621784E1,6.2881413E0,3.0200334E0,4.7344498E1,5.7495203E0,3.8604378E1,3.0174055E0,4.5815144E0,1.7066271E0,3.1851516E0,4.4159344E1,2.410638E0,3.3388822E0,1.8204958E1,2.0399422E1,1.5722126E0,1.4451929E0,1.176409E0,3.4051054E0,1.7008934E0,1.4842582E0,2.789799E1,1.6261354E1,1.8930334E0,1.4458488E0,1.6546066E1,1.6588912E0,1.0850989E1,9.548432E0,2.1828115E0,1.2222939E0],"tree_param":{"num_deleted":"0","num_feature":"8","num_nodes":"35","size_leaf_vector":"1"}},{"base_weights":[1.10345185E-2,2.1025738E-1,-4.868112E-1,-1.192869E-1,4.248781E-1,-1.535557E-1,-3.850162E-1,5.57505E-1,-4.8308954E-1,5.134328E-1,-1.5167223E-1,-1.8467417E-1,-8.726115E-1,-1.03493005E-1,1.6832899E-1,-1.5229144E-2,-8.307043E-1,9.489327E-1,2.6082712E-1,-6.249575E-1,1.413422E-1,-4.6314096E-1,-1.3383478E-1,8.4953256E-2,-8.616476E-2,6.1752655E-2,-8.591277E-2,-1.4369528E-1,-2.1461356E-2,-1.6020818E-4,1.4267291E-1,5.8101974E-2,-2.4618328E-2,-1.0750019E-2,-1.0203119E-1,-7.068587E-3,1.1736797E-1,-1.2044946E-1,1.7118858E-2],"categories":[],"categories_nodes":[],"categories_segments":[],"categories_sizes":[],"default_left":[0,0,0,0,0,0,0,0,0,0,0,0,0,0,0,0,0,0,0,0,0,0,0,0,0,0,0,0,0,0,0,0,0,0,0,0,0,0,0],"id":11,"left_children":[1,3,5,7,9,-1,11,13,15,17,-1,19,21,23,-1,25,27,29,31,33,35,37,-1,-1,-1,-1,-1,-1,-1,-1,-1,-1,-1,-1,-1,-1,-1,-1,-1],"loss_changes":[1.029413E1,5.2907114E0,1.6383553E0,7.65623E0,6.9467525E0,0E0,2.5109167E0,5.4597645E0,3.2479167E0,4.5271645E0,0E0,3.0533068E0,1.4053822E-2,3.2589931E0,0E0,3.3326507E0,1.9068742E0,2.1754627E0,2.4925632E0,7.0838094E-1,1.935648E0,1.2041713E0,0E0,0E0,0E0,0E0,0E0,0E0,0E0,0E0,0E0,0E0,0E0,0E0,0E0,0E0,0E0,0E0,0E0],"parents":[2147483647,0,0,1,1,2,2,3,3,4,4,6,6,7,7,8,8,9,9,11,11,12,12,13,13,15,15,16,16,17,17,18,18,19,19,20,20,21,21],"right_children":[2,4,6,8,10,-1,12,14,16,18,-1,20,22,24,-1,26,28,30,32,34,36,38,-1,-1,-1,-1,-1,-1,-1,-1,-1,-1,-1,-1,-1,-1,-1,-1,-1],"split_conditions":[2.6E1,1.377E3,2.273E3,1.1E1,7.763E3,-1.535557E-1,4.8E1,3.6E1,2.8E1,1.5E1,-1.5167223E-1,3E1,3.2E1,2.7E1,1.6832899E-1,1.203E3,1.228E3,1E0,2E0,3.931E3,3.9E1,2.6E1,-1.3383478E-1,8.4953256E-2,-8.616476E-2,6.1752655E-2,-8.591277E-2,-1.4369528E-1,-2.1461356E-2,-1.6020818E-4,1.4267291E-1,5.8101974E-2,-2.4618328E-2,-1.0750019E-2,-1.0203119E-1,-7.068587E-3,1.1736797E-1,-1.2044946E-1,1.7118858E-2],"split_indices":[7,6,6,7,6,0,7,0,0,7,0,0,0,0,0,6,6,3,3,6,7,0,0,0,0,0,0,0,0,0,0,0,0,0,0,0,0,0,0],"split_type":[0,0,0,0,0,0,0,0,0,0,0,0,0,0,0,0,0,0,0,0,0,0,0,0,0,0,0,0,0,0,0,0,0,0,0,0,0,0,0],"sum_hessian":[1.0175805E2,7.308807E1,2.866998E1,2.90014E1,4.408667E1,2.316311E0,2.6353668E1,9.953044E0,1.9048357E1,4.2402264E1,1.6844069E0,1.9656143E1,6.697526E0,5.695079E0,4.257965E0,8.564741E0,1.0483616E1,1.4554055E1,2.784821E1,7.9724464E0,1.1683697E1,2.9386826E0,3.7588432E0,2.347689E0,3.3473902E0,5.0182343E0,3.546507E0,6.967097E0,3.5165186E0,2.0841825E0,1.2469872E1,1.9723707E1,8.124503E0,2.1504843E0,5.821962E0,1.0031041E1,1.6526562E0,1.340641E0,1.5980414E0],"tree_param":{"num_deleted":"0","num_feature":"8","num_nodes":"39","size_leaf_vector":"1"}},{"base_weights":[-3.1245658E-2,3.4022756E-2,-7.0156264E-1,-1.790736E-1,2.7174422E-1,-3.4082925E-1,-1.1831918E-1,-2.7817234E-1,1.0986026E-1,-3.5969454E-1,3.969332E-1,-8.863203E-2,4.2412136E-2,-1.4502287E-1,-7.247113E-1,6.455838E-2,-6.302396E-1,1.443208E-1,3.2173464E-1,-2.9291479E-2,1.1764864E-1,-1.4638737E-1,-4.8734013E-2,-5.0111014E-2,-1.21566236E-1,-1.13928735E-1,5.4305315E-2],"categories":[],"categories_nodes":[],"categories_segments":[],"categories_sizes":[],"default_left":[0,0,0,0,0,0,0,0,0,0,0,0,0,0,0,0,0,0,0,0,0,0,0,0,0,0,0],"id":12,"left_children":[1,3,5,7,9,11,-1,13,-1,15,17,-1,-1,19,21,-1,23,-1,25,-1,-1,-1,-1,-1,-1,-1,-1],"loss_changes":[4.4992785E0,4.819141E0,3.7269783E-1,5.330266E0,3.692936E0,1.3395069E0,0E0,2.664011E0,0E0,2.1541657E0,1.6748157E0,0E0,0E0,3.318503E0,1.0424905E0,0E0,1.2346053E-1,0E0,4.448105E0,0E0,0E0,0E0,0E0,0E0,0E0,0E0,0E0],"parents":[2147483647,0,0,1,1,2,2,3,3,4,4,5,5,7,7,9,9,10,10,13,13,14,14,16,16,18,18],"right_children":[2,4,6,8,10,12,-1,14,-1,16,18,-1,-1,20,22,-1,24,-1,26,-1,-1,-1,-1,-1,-1,-1,-1],"split_conditions":[7.763E3,1E0,1.0961E4,3E0,9.76E2,9.271E3,-1.1831918E-1,3.949E3,1.0986026E-1,6.09E2,1.164E3,-8.863203E-2,4.2412136E-2,3.59E3,1E0,6.455838E-2,9.18E2,1.443208E-1,1.258E3,-2.9291479E-2,1.1764864E-1,-1.4638737E-1,-4.8734013E-2,-5.0111014E-2,-1.21566236E-1,-1.13928735E-1,5.4305315E-2],"split_indices":[6,5,6,2,6,6,0,6,0,6,6,0,0,6,1,0,6,0,6,0,0,0,0,0,0,0,0],"split_type":[0,0,0,0,0,0,0,0,0,0,0,0,0,0,0,0,0,0,0,0,0,0,0,0,0,0,0],"sum_hessian":[1.01293846E2,9.3171074E1,8.122775E0,4.9260277E1,4.3910793E1,3.9301271E0,4.1926475E0,4.5573788E1,3.6864898E0,6.9553914E0,3.6955402E1,2.5884073E0,1.34172E0,3.612636E1,9.447427E0,1.4707477E0,5.484644E0,2.2179976E0,3.4737404E1,3.4295856E1,1.8305031E0,3.379713E0,6.0677137E0,4.2884407E0,1.1962028E0,1.9621534E0,3.277525E1],"tree_param":{"num_deleted":"0","num_feature":"8","num_nodes":"27","size_leaf_vector":"1"}},{"base_weights":[1.9675441E-2,-2.9180683E-2,4.8162553E-1,-2.2562447E-1,7.73836E-2,7.4377203E-1,3.4063853E-2,-3.0023852E-1,6.188364E-2,3.554681E-1,-1.6975127E-2,1.0652746E-2,1.3470443E-1,-6.4919573E-1,-1.4934921E-1,5.857323E-2,-3.514153E-2,-1.5601994E-1,4.2681077E-1,-9.8340966E-2,-4.1273925E-2,-1.04150595E-2,-8.368042E-2,-4.017196E-2,4.2926367E-2,7.427445E-2,-3.4576308E-2],"categories":[],"categories_nodes":[],"categories_segments":[],"categories_sizes":[],"default_left":[0,0,0,0,0,0,0,0,0,0,0,0,0,0,0,0,0,0,0,0,0,0,0,0,0,0,0],"id":13,"left_children":[1,3,5,7,9,11,-1,13,-1,15,17,-1,-1,19,21,-1,-1,23,25,-1,-1,-1,-1,-1,-1,-1,-1],"loss_changes":[2.289989E0,1.9463236E0,3.6476445E-1,1.8510717E0,1.5930258E0,6.635256E-1,0E0,1.4895732E0,0E0,1.02983E0,2.9119956E0,0E0,0E0,7.097077E-2,7.128151E-1,0E0,0E0,2.7587168E0,1.2734444E0,0E0,0E0,0E0,0E0,0E0,0E0,0E0,0E0],"parents":[2147483647,0,0,1,1,2,2,3,3,4,4,5,5,7,7,9,9,10,10,13,13,14,14,17,17,18,18],"right_children":[2,4,6,8,10,12,-1,14,-1,16,18,-1,-1,20,22,-1,-1,24,26,-1,-1,-1,-1,-1,-1,-1,-1],"split_conditions":[2E0,1E0,1E0,2E0,2E0,2E0,3.4063853E-2,2E0,6.188364E-2,1E0,1E0,1.0652746E-2,1.3470443E-1,1E0,1E0,5.857323E-2,-3.514153E-2,3E0,3E0,-9.8340966E-2,-4.1273925E-2,-1.04150595E-2,-8.368042E-2,-4.017196E-2,4.2926367E-2,7.427445E-2,-3.4576308E-2],"split_indices":[5,1,1,4,2,2,0,2,0,4,4,0,0,5,4,0,0,2,2,0,0,0,0,0,0,0,0],"split_type":[0,0,0,0,0,0,0,0,0,0,0,0,0,0,0,0,0,0,0,0,0,0,0,0,0,0,0],"sum_hessian":[9.9842995E1,9.1140724E1,8.702268E0,3.1660166E1,5.948056E1,2.8836017E0,5.8186665E0,2.9131285E1,2.5288815E0,1.4368365E1,4.5112194E1,1.2719717E0,1.6116298E0,7.796979E0,2.1334305E1,1.2726002E1,1.6423644E0,3.48436E1,1.0268591E1,4.941114E0,2.8558648E0,1.9725E1,1.6093054E0,2.6792612E1,8.05099E0,8.648691E0,1.6198996E0],"tree_param":{"num_deleted":"0","num_feature":"8","num_nodes":"27","size_leaf_vector":"1"}},{"base_weights":[-1.1145702E-2,2.6828828E-1,-3.133102E-1,-1.9102362E-1,4.1191208E-1,-2.1111825E-1,-8.2369256E-1,6.924484E-1,-5.913378E-1,4.862426E-1,-1.0793888E-1,-4.085439E-1,3.539914E-1,-9.8900485E-1,-3.8621652E-1,-3.5195919E-3,1.2235003E-1,6.0148817E-2,-9.2991185E-1,2.852381E-1,9.290477E-1,-2.0789857E-1,-1.0992907E0,1.0292292E0,-4.6653378E-1,-4.4226173E-2,-1.4429879E-1,4.7510803E-2,-1.125618E-1,-1.4894047E-1,-3.32899E-2,-6.425773E-3,6.256413E-2,1.4057738E-1,3.1905107E-2,-8.614531E-2,1.627547E-2,-1.6192189E-1,-5.985531E-2,1.5091968E-1,3.149689E-2,-1.21831976E-1,-1.2949881E-3],"categories":[],"categories_nodes":[],"categories_segments":[],"categories_sizes":[],"default_left":[0,0,0,0,0,0,0,0,0,0,0,0,0,0,0,0,0,0,0,0,0,0,0,0,0,0,0,0,0,0,0,0,0,0,0,0,0,0,0,0,0,0,0],"id":14,"left_children":[1,3,5,7,9,11,13,15,17,19,-1,21,23,25,27,-1,-1,-1,29,31,33,35,37,39,41,-1,-1,-1,-1,-1,-1,-1,-1,-1,-1,-1,-1,-1,-1,-1,-1,-1,-1],"loss_changes":[8.522313E0,3.5394104E0,2.3545327E0,5.07068E0,4.1192327E0,4.800851E0,1.7796993E-1,8.391681E-1,3.8569374E0,3.1737528E0,0E0,4.1224556E0,6.763753E0,9.716034E-3,1.6686299E0,0E0,0E0,0E0,8.0586576E-1,1.8553655E0,9.344702E-1,3.945238E0,5.998516E-2,3.889675E-1,1.2354544E0,0E0,0E0,0E0,0E0,0E0,0E0,0E0,0E0,0E0,0E0,0E0,0E0,0E0,0E0,0E0,0E0,0E0,0E0],"parents":[2147483647,0,0,1,1,2,2,3,3,4,4,5,5,6,6,7,7,8,8,9,9,11,11,12,12,13,13,14,14,18,18,19,19,20,20,21,21,22,22,23,23,24,24],"right_children":[2,4,6,8,10,12,14,16,18,20,-1,22,24,26,28,-1,-1,-1,30,32,34,36,38,40,42,-1,-1,-1,-1,-1,-1,-1,-1,-1,-1,-1,-1,-1,-1,-1,-1,-1,-1],"split_conditions":[1.9E1,1.024E3,4.8E1,9E0,6.38E3,5.293E3,7.476E3,2.7E1,2.5E1,3.8E1,-1.0793888E-1,4.057E3,8.065E3,4.795E3,8.386E3,-3.5195919E-3,1.2235003E-1,6.0148817E-2,3.8E1,1.474E3,1.6E1,2.323E3,3.4E1,4.5E1,3E1,-4.4226173E-2,-1.4429879E-1,4.7510803E-2,-1.125618E-1,-1.4894047E-1,-3.32899E-2,-6.425773E-3,6.256413E-2,1.4057738E-1,3.1905107E-2,-8.614531E-2,1.627547E-2,-1.6192189E-1,-5.985531E-2,1.5091968E-1,3.149689E-2,-1.21831976E-1,-1.2949881E-3],"split_indices":[7,6,7,7,6,6,6,0,0,0,0,6,6,6,6,0,0,0,0,6,7,6,7,0,0,0,0,0,0,0,0,0,0,0,0,0,0,0,0,0,0,0,0],"split_type":[0,0,0,0,0,0,0,0,0,0,0,0,0,0,0,0,0,0,0,0,0,0,0,0,0,0,0,0,0,0,0,0,0,0,0,0,0,0,0,0,0,0,0],"sum_hessian":[9.893787E1,5.1460567E1,4.7477303E1,1.2179679E1,3.9280888E1,4.0734776E1,6.742524E0,3.5703485E0,8.60933E0,3.7635147E1,1.6457403E0,3.0393585E1,1.0341192E1,3.978451E0,2.764073E0,1.1417093E0,2.428639E0,2.0053306E0,6.6039996E0,2.7015873E1,1.0619275E1,2.4560366E1,5.8332195E0,5.5333E0,4.807893E0,1.2159772E0,2.7624738E0,1.1678718E0,1.5962011E0,4.482198E0,2.1218011E0,1.0235427E1,1.6780447E1,8.225523E0,2.3937516E0,9.974398E0,1.4585967E1,3.9864032E0,1.846816E0,4.3426037E0,1.1906962E0,1.853003E0,2.9548898E0],"tree_param":{"num_deleted":"0","num_feature":"8","num_nodes":"43","size_leaf_vector":"1"}},{"base_weights":[1.4575092E-2,7.073813E-2,-6.2726873E-1,1.0826227E-1,5.2025136E-2,-1.3358992E-1,-2.2799173E-1,-3.423127E-1,1.1429828E-1,6.675498E-2,-5.360333E-1,-1.09535515E-1,-8.370863E-1,6.788129E-1,6.818515E-2,-2.4594925E-2,-8.3017305E-2,-3.6128316E-2,4.385802E-2,-3.998561E-2,-1.286526E-1,1.4753473E-1,2.4022618E-2,-9.686712E-2,1.60155E-2],"categories":[],"categories_nodes":[],"categories_segments":[],"categories_sizes":[],"default_left":[0,0,0,0,0,0,0,0,0,0,0,0,0,0,0,0,0,0,0,0,0,0,0,0,0],"id":15,"left_children":[1,3,5,-1,7,-1,9,11,13,-1,15,17,19,21,23,-1,-1,-1,-1,-1,-1,-1,-1,-1,-1],"loss_changes":[3.6344798E0,1.2735922E0,1.058784E0,0E0,2.281764E0,0E0,1.4938493E0,1.3716092E0,2.0263386E0,0E0,2.996838E-2,8.2792306E-1,1.0143042E-2,1.1166956E0,3.4207265E0,0E0,0E0,0E0,0E0,0E0,0E0,0E0,0E0,0E0,0E0],"parents":[2147483647,0,0,1,1,2,2,4,4,6,6,7,7,8,8,10,10,11,11,12,12,13,13,14,14],"right_children":[2,4,6,-1,8,-1,10,12,14,-1,16,18,20,22,24,-1,-1,-1,-1,-1,-1,-1,-1,-1,-1],"split_conditions":[8.065E3,4.28E2,3E1,1.0826227E-1,1.024E3,-1.3358992E-1,3.6E1,8.88E2,1.19E3,6.675498E-2,1.0722E4,7.81E2,2.8E1,2.8E1,1.275E3,-2.4594925E-2,-8.3017305E-2,-3.6128316E-2,4.385802E-2,-3.998561E-2,-1.286526E-1,1.4753473E-1,2.4022618E-2,-9.686712E-2,1.60155E-2],"split_indices":[6,6,0,0,6,0,0,6,6,0,6,6,0,0,6,0,0,0,0,0,0,0,0,0,0],"split_type":[0,0,0,0,0,0,0,0,0,0,0,0,0,0,0,0,0,0,0,0,0,0,0,0,0],"sum_hessian":[9.8592705E1,9.147793E1,7.1147723E0,1.1528585E0,9.032507E1,2.773208E0,4.341564E0,1.1705339E1,7.8619736E1,1.0798392E0,3.2617252E0,8.790867E0,2.9144723E0,4.901025E0,7.371871E1,1.3868957E0,1.8748294E0,6.6621547E0,2.1287124E0,1.3201597E0,1.5943127E0,1.8794286E0,3.0215962E0,3.867798E0,6.9850914E1],"tree_param":{"num_deleted":"0","num_feature":"8","num_nodes":"25","size_leaf_vector":"1"}},{"base_weights":[-2.117834E-2,2.6321992E-1,-4.5070935E-2,5.2111764E-2,1.5825377E-1,-2.7830693E-1,7.3145684E-3,3.6155354E-2,2.4657422E-3,-4.2929593E-1,-4.07693E-2,-1.4246001E-2,3.5624084E-1,-2.0659301E-2,-7.84923E-2,-3.2447875E-2,6.5420285E-2,2.9726576E-2,-1.19545355E-1,9.938556E-2,-5.3539723E-2,-7.9365075E-2,6.7396974E-3],"categories":[],"categories_nodes":[],"categories_segments":[],"categories_sizes":[],"default_left":[0,0,0,0,0,0,0,0,0,0,0,0,0,0,0,0,0,0,0,0,0,0,0],"id":16,"left_children":[1,3,5,-1,7,9,11,-1,-1,13,15,17,19,-1,-1,-1,-1,21,-1,-1,-1,-1,-1],"loss_changes":[6.603489E-1,4.519874E-2,1.0881472E0,0E0,9.3388245E-2,5.6816006E-1,5.5849797E-1,0E0,0E0,3.6859405E-1,9.6936524E-1,2.8199775E0,1.6642606E0,0E0,0E0,0E0,0E0,9.896481E-1,0E0,0E0,0E0,0E0,0E0],"parents":[2147483647,0,0,1,1,2,2,4,4,5,5,6,6,9,9,10,10,11,11,12,12,17,17],"right_children":[2,4,6,-1,8,10,12,-1,-1,14,16,18,20,-1,-1,-1,-1,22,-1,-1,-1,-1,-1],"split_conditions":[2.3E1,2E0,2.6E1,5.2111764E-2,1E0,1E0,6.3E1,3.6155354E-2,2.4657422E-3,2.4E1,2E0,5.6E1,3E0,-2.0659301E-2,-7.84923E-2,-3.2447875E-2,6.5420285E-2,1E0,-1.19545355E-1,9.938556E-2,-5.3539723E-2,-7.9365075E-2,6.7396974E-3],"split_indices":[0,2,0,0,1,1,0,0,0,0,3,0,2,0,0,0,0,2,0,0,0,0,0],"split_type":[0,0,0,0,0,0,0,0,0,0,0,0,0,0,0,0,0,0,0,0,0,0,0],"sum_hessian":[9.443549E1,6.542463E0,8.789303E1,1.6167027E0,4.9257603E0,1.5329375E1,7.256365E1,2.1165051E0,2.8092551E0,8.87853E0,6.4508457E0,6.924415E1,3.3195062E0,4.2193375E0,4.659192E0,5.0530233E0,1.3978225E0,6.695489E1,2.2892613E0,2.1722028E0,1.1473033E0,1.343436E0,6.561145E1],"tree_param":{"num_deleted":"0","num_feature":"8","num_nodes":"23","size_leaf_vector":"1"}},{"base_weights":[2.7390948E-2,8.04078E-2,-5.888307E-1,-1.22436665E-1,1.8723913E-1,-3.196902E-1,-1.0260967E-1,-2.4442679E-1,7.6352876E-1,1.2065822E-1,1.5095833E-1,-5.984389E-1,3.449008E-2,-1.216343E-1,-6.3481325E-1,4.1517982E-4,1.32155E-1,-8.135268E-2,2.3731531E-1,-1.0491907E-1,-1.8616427E-2,-6.0873456E-2,2.1659296E-2,-1.3182962E-1,-1.634066E-2,1.9121014E-2,7.3449515E-2],"categories":[],"categories_nodes":[],"categories_segments":[],"categories_sizes":[],"default_left":[0,0,0,0,0,0,0,0,0,0,0,0,0,0,0,0,0,0,0,0,0,0,0,0,0,0,0],"id":17,"left_children":[1,3,5,7,9,11,-1,13,15,-1,17,19,-1,21,23,-1,-1,-1,25,-1,-1,-1,-1,-1,-1,-1,-1],"loss_changes":[3.2575061E0,2.0026119E0,1.7227292E-1,3.6581545E0,1.4765608E0,9.809903E-1,0E0,1.3124814E0,7.8717613E-1,0E0,4.0758033E0,2.367779E-1,0E0,2.3989313E0,1.1623778E0,0E0,0E0,0E0,1.4977965E0,0E0,0E0,0E0,0E0,0E0,0E0,0E0,0E0],"parents":[2147483647,0,0,1,1,2,2,3,3,4,4,5,5,7,7,8,8,10,10,11,11,13,13,14,14,18,18],"right_children":[2,4,6,8,10,12,-1,14,16,-1,18,20,-1,22,24,-1,-1,-1,26,-1,-1,-1,-1,-1,-1,-1,-1],"split_conditions":[8.065E3,1E0,1.1816E4,2E0,6.26E2,1.055E4,-1.0260967E-1,3.913E3,7.51E2,1.2065822E-1,9.51E2,1E0,3.449008E-2,1.364E3,1E0,4.1517982E-4,1.32155E-1,-8.135268E-2,1E0,-1.0491907E-1,-1.8616427E-2,-6.0873456E-2,2.1659296E-2,-1.3182962E-1,-1.634066E-2,1.9121014E-2,7.3449515E-2],"split_indices":[6,1,6,5,6,6,0,6,6,0,6,5,0,6,5,0,0,0,4,0,0,0,0,0,0,0,0],"split_type":[0,0,0,0,0,0,0,0,0,0,0,0,0,0,0,0,0,0,0,0,0,0,0,0,0,0,0],"sum_hessian":[9.7259766E1,9.0355515E1,6.9042544E0,3.112027E1,5.9235245E1,4.046488E0,2.8577669E0,2.7990343E1,3.1299264E0,1.6218072E0,5.7613438E1,2.7241066E0,1.3223813E0,2.229061E1,5.6997333E0,1.0303267E0,2.0995996E0,5.145308E0,5.246813E1,1.3424506E0,1.3816559E0,9.842772E0,1.2447838E1,2.7043276E0,2.9954054E0,4.2235924E1,1.02322035E1],"tree_param":{"num_deleted":"0","num_feature":"8","num_nodes":"27","size_leaf_vector":"1"}},{"base_weights":[1.1652336E-4,5.4514892E-2,-5.700416E-1,2.3099963E-2,6.7287606E-1,-2.910555E-1,-9.604106E-2,9.770168E-2,-4.4051693E-3,3.5228174E-2,1.11480065E-1,-6.255813E-1,4.785558E-2,-3.6139524E-1,4.6299223E-2,1.49299605E-2,-1.2688869E-1,-1.4411625E-2,-1.24917924E-1,9.208144E-2,3.204242E-4],"categories":[],"categories_nodes":[],"categories_segments":[],"categories_sizes":[],"default_left":[0,0,0,0,0,0,0,0,0,0,0,0,0,0,0,0,0,0,0,0,0],"id":18,"left_children":[1,3,5,7,9,11,-1,-1,13,-1,-1,15,-1,17,19,-1,-1,-1,-1,-1,-1],"loss_changes":[3.0882397E0,1.7501789E0,1.9116664E-1,1.7548305E0,9.004116E-2,1.3115087E0,0E0,0E0,1.561502E0,0E0,0E0,1.0489488E0,0E0,1.5025499E0,2.18961E0,0E0,0E0,0E0,0E0,0E0,0E0],"parents":[2147483647,0,0,1,1,2,2,3,3,4,4,5,5,8,8,11,11,13,13,14,14],"right_children":[2,4,6,8,10,12,-1,-1,14,-1,-1,16,-1,18,20,-1,-1,-1,-1,-1,-1],"split_conditions":[7.763E3,3E0,1.0961E4,6.09E2,1.526E3,9.271E3,-9.604106E-2,9.770168E-2,1.024E3,3.5228174E-2,1.11480065E-1,3E0,4.785558E-2,9.18E2,1.175E3,1.49299605E-2,-1.2688869E-1,-1.4411625E-2,-1.24917924E-1,9.208144E-2,3.204242E-4],"split_indices":[6,4,6,6,6,6,0,0,6,0,0,2,0,6,6,0,0,0,0,0,0],"split_type":[0,0,0,0,0,0,0,0,0,0,0,0,0,0,0,0,0,0,0,0,0],"sum_hessian":[9.756836E1,8.989585E1,7.6725106E0,8.653683E1,3.3590193E0,3.9082165E0,3.7642941E0,2.1949875E0,8.434184E1,1.8277572E0,1.5312622E0,2.6252258E0,1.2829907E0,9.727409E0,7.461443E1,1.0566931E0,1.5685326E0,7.690112E0,2.0372972E0,3.6987839E0,7.091565E1],"tree_param":{"num_deleted":"0","num_feature":"8","num_nodes":"21","size_leaf_vector":"1"}},{"base_weights":[-1.653664E-2,3.7882064E-2,-6.059576E-1,7.3827337E-3,6.343164E-1,-1.3348951E-2,-7.066394E-1,9.1271766E-2,-1.8958371E-2,3.254867E-2,1.0607275E-1,-1.7818011E-2,-1.20177E-1,-4.9663323E-1,4.9682952E-2,-4.189192E-2,-1.0269268E-1,8.232728E-2,6.106036E-4],"categories":[],"categories_nodes":[],"categories_segments":[],"categories_sizes":[],"default_left":[0,0,0,0,0,0,0,0,0,0,0,0,0,0,0,0,0,0,0],"id":19,"left_children":[1,3,5,7,9,-1,11,-1,13,-1,-1,-1,-1,15,17,-1,-1,-1,-1],"loss_changes":[3.0669687E0,1.5928615E0,3.3706713E-1,1.5586467E0,9.185481E-2,0E0,6.83589E-1,0E0,2.7277794E0,0E0,0E0,0E0,0E0,2.7998757E-1,1.9108992E0,0E0,0E0,0E0,0E0],"parents":[2147483647,0,0,1,1,2,2,3,3,4,4,6,6,8,8,13,13,14,14],"right_children":[2,4,6,8,10,-1,12,-1,14,-1,-1,-1,-1,16,18,-1,-1,-1,-1],"split_conditions":[7.763E3,3E0,1E0,6.09E2,1.526E3,-1.3348951E-2,1E0,9.1271766E-2,1.038E3,3.254867E-2,1.0607275E-1,-1.7818011E-2,-1.20177E-1,9.18E2,1.19E3,-4.189192E-2,-1.0269268E-1,8.232728E-2,6.106036E-4],"split_indices":[6,4,1,6,6,0,3,0,6,0,0,0,0,6,6,0,0,0,0],"split_type":[0,0,0,0,0,0,0,0,0,0,0,0,0,0,0,0,0,0,0],"sum_hessian":[9.390144E1,8.6821335E1,7.0801096E0,8.3560745E1,3.2605927E0,1.5164446E0,5.563665E0,2.1194265E0,8.1441315E1,1.8046601E0,1.4559326E0,1.9819226E0,3.5817425E0,9.449194E0,7.199212E1,7.2274756E0,2.2217188E0,4.2239113E0,6.776821E1],"tree_param":{"num_deleted":"0","num_feature":"8","num_nodes":"19","size_leaf_vector":"1"}},{"base_weights":[2.1924546E-2,7.0729315E-2,-4.9668562E-1,-2.9768415E-2,2.6019472E-1,-1.1573223E-1,-2.0630242E-1,-8.114824E-2,4.114651E-1,4.5978385E-1,-2.0412646E-1,3.3357564E-2,-4.7175553E-1,8.819309E-2,-2.7704138E-1,1.0178678E-1,1.2360429E-1,9.549855E-3,7.003934E-1,-5.708391E-1,2.6656514E-1,-9.3620375E-2,-1.7397106E-1,2.4315216E-2,-8.036588E-2,-1.1587307E-1,-1.1627079E-2,-1.9404046E-2,4.449466E-2,1.072824E-1,-3.199613E-2,1.0994807E-1,-1.9892728E-2,5.0459225E-2,-1.138579E-1,1.088428E-1,-4.0318225E-2,1.1550382E-2,-4.641121E-2],"categories":[],"categories_nodes":[],"categories_segments":[],"categories_sizes":[],"default_left":[0,0,0,0,0,0,0,0,0,0,0,0,0,0,0,0,0,0,0,0,0,0,0,0,0,0,0,0,0,0,0,0,0,0,0,0,0,0,0],"id":20,"left_children":[1,3,5,7,9,-1,11,13,15,17,19,-1,21,23,25,-1,27,29,31,33,35,-1,37,-1,-1,-1,-1,-1,-1,-1,-1,-1,-1,-1,-1,-1,-1,-1,-1],"loss_changes":[2.484574E0,1.7086015E0,7.7924275E-1,1.376945E0,2.9724977E0,0E0,8.769671E-1,1.8130589E0,5.801352E-1,2.380002E0,1.8835455E0,0E0,1.891101E-1,2.18003E0,2.825569E0,0E0,3.341129E-1,2.0095959E0,1.8945403E0,2.0737066E0,1.9246216E0,0E0,1.8772408E-1,0E0,0E0,0E0,0E0,0E0,0E0,0E0,0E0,0E0,0E0,0E0,0E0,0E0,0E0,0E0,0E0],"parents":[2147483647,0,0,1,1,2,2,3,3,4,4,6,6,7,7,8,8,9,9,10,10,12,12,13,13,14,14,16,16,17,17,18,18,19,19,20,20,22,22],"right_children":[2,4,6,8,10,-1,12,14,16,18,20,-1,22,24,26,-1,28,30,32,34,36,-1,38,-1,-1,-1,-1,-1,-1,-1,-1,-1,-1,-1,-1,-1,-1,-1,-1],"split_conditions":[7.763E3,3.6E1,3E1,5.29E3,3.031E3,-1.1573223E-1,3.9E1,2.8E1,5.998E3,1.228E3,5.493E3,3.3357564E-2,4.3E1,4.057E3,1.372E3,1.0178678E-1,2.9E1,6.83E2,6E1,3.9E1,4.5E1,-9.3620375E-2,5E1,2.4315216E-2,-8.036588E-2,-1.1587307E-1,-1.1627079E-2,-1.9404046E-2,4.449466E-2,1.072824E-1,-3.199613E-2,1.0994807E-1,-1.9892728E-2,5.0459225E-2,-1.138579E-1,1.088428E-1,-4.0318225E-2,1.1550382E-2,-4.641121E-2],"split_indices":[6,0,0,6,6,0,0,0,6,6,6,0,0,6,6,0,0,6,0,0,0,0,0,0,0,0,0,0,0,0,0,0,0,0,0,0,0,0,0],"split_type":[0,0,0,0,0,0,0,0,0,0,0,0,0,0,0,0,0,0,0,0,0,0,0,0,0,0,0,0,0,0,0,0,0,0,0,0,0,0,0],"sum_hessian":[9.577524E1,8.8326706E1,7.44853E0,5.8264484E1,3.0062222E1,2.29099E0,5.15754E0,5.2918438E1,5.3460455E0,2.1031551E1,9.030671E0,1.8932006E0,3.2643392E0,2.8677631E1,2.4240807E1,1.587064E0,3.7589812E0,7.687053E0,1.3344498E1,4.9564037E0,4.0742674E0,1.0099111E0,2.2544281E0,2.5806555E1,2.8710763E0,4.8050117E0,1.9435795E1,1.8118465E0,1.9471347E0,1.3029193E0,6.3841343E0,1.1423252E1,1.9212459E0,1.1266242E0,3.8297794E0,1.822292E0,2.2519753E0,1.1350933E0,1.1193348E0],"tree_param":{"num_deleted":"0","num_feature":"8","num_nodes":"39","size_leaf_vector":"1"}},{"base_weights":[-5.9598275E-3,8.860572E-2,-2.4049248E-1,2.6289767E-2,9.3795323E-1,-6.589715E-1,-1.0957022E-1,-1.329283E-1,4.1796783E-1,1.4712723E-1,4.7021236E-2,-2.1399234E-1,-1.2779024E-1,6.034204E-2,-5.7414144E-1,-3.7464106E-1,1.318597E-1,8.227389E-2,5.969383E-1,5.3486545E-2,-1.0802146E-1,-3.9119625E-1,4.5165688E-1,-7.5890535E-1,-3.3534544E-3,-1.2217212E-2,-9.658438E-2,-5.925216E-3,6.940685E-2,4.5113437E-2,-8.596363E-2,1.08492084E-1,-9.854307E-3,-1.3441472E-2,-1.10666074E-1,9.9222116E-2,1.1582635E-2,-1.23074345E-1,-2.78124E-2],"categories":[],"categories_nodes":[],"categories_segments":[],"categories_sizes":[],"default_left":[0,0,0,0,0,0,0,0,0,0,0,0,0,0,0,0,0,0,0,0,0,0,0,0,0,0,0,0,0,0,0,0,0,0,0,0,0,0,0],"id":21,"left_children":[1,3,5,7,9,11,13,15,17,-1,-1,19,-1,21,23,25,27,29,31,-1,-1,33,35,37,-1,-1,-1,-1,-1,-1,-1,-1,-1,-1,-1,-1,-1,-1,-1],"loss_changes":[2.1288836E0,3.5983596E0,1.4385812E0,4.096745E0,1.0746145E-1,7.0497227E-1,1.7872932E0,3.0467544E0,1.0905974E0,0E0,0E0,1.863897E0,0E0,3.209146E0,5.925343E-1,2.4824471E0,1.6679271E0,1.7513564E0,2.0061808E0,0E0,0E0,1.0360136E0,1.0201246E0,2.5409245E-1,0E0,0E0,0E0,0E0,0E0,0E0,0E0,0E0,0E0,0E0,0E0,0E0,0E0,0E0,0E0],"parents":[2147483647,0,0,1,1,2,2,3,3,4,4,5,5,6,6,7,7,8,8,11,11,13,13,14,14,15,15,16,16,17,17,18,18,21,21,22,22,23,23],"right_children":[2,4,6,8,10,12,14,16,18,-1,-1,20,-1,22,24,26,28,30,32,-1,-1,34,36,38,-1,-1,-1,-1,-1,-1,-1,-1,-1,-1,-1,-1,-1,-1,-1],"split_conditions":[3.913E3,3.59E3,4.37E3,3.8E1,3.2E1,2.9E1,4.5E1,1E0,1.228E3,1.4712723E-1,4.7021236E-2,4.21E3,-1.2779024E-1,3E1,3E0,2.145E3,2.101E3,1.19E3,2.606E3,5.3486545E-2,-1.0802146E-1,7.763E3,6.56E3,1E0,-3.3534544E-3,-1.2217212E-2,-9.658438E-2,-5.925216E-3,6.940685E-2,4.5113437E-2,-8.596363E-2,1.08492084E-1,-9.854307E-3,-1.3441472E-2,-1.10666074E-1,9.9222116E-2,1.1582635E-2,-1.23074345E-1,-2.78124E-2],"split_indices":[6,6,6,0,0,0,0,5,6,0,0,6,0,0,2,6,6,6,6,0,0,6,6,5,0,0,0,0,0,0,0,0,0,0,0,0,0,0,0],"split_type":[0,0,0,0,0,0,0,0,0,0,0,0,0,0,0,0,0,0,0,0,0,0,0,0,0,0,0,0,0,0,0,0,0,0,0,0,0,0,0],"sum_hessian":[9.402695E1,6.745195E1,2.6574995E1,6.3801815E1,3.6501355E0,5.371682E0,2.1203312E1,4.583173E1,1.7970087E1,2.0175896E0,1.632546E0,2.9573128E0,2.4143693E0,1.6162245E1,5.041066E0,2.3742983E1,2.2088747E1,6.7565575E0,1.121353E1,1.633076E0,1.3242369E0,7.503852E0,8.658394E0,3.483482E0,1.5575845E0,1.4168447E1,9.574535E0,1.5933315E1,6.1554317E0,5.376521E0,1.3800364E0,8.119426E0,3.094104E0,5.363794E0,2.140058E0,4.070661E0,4.587733E0,2.0484688E0,1.435013E0],"tree_param":{"num_deleted":"0","num_feature":"8","num_nodes":"39","size_leaf_vector":"1"}},{"base_weights":[3.1836703E-2,1.3605249E-1,-2.3682499E-1,5.147785E-2,9.3645275E-1,-1.08911894E-1,-9.141951E-2,1.1797482E-1,-6.4780694E-1,1.3651419E-1,2.510263E-2,9.9458754E-2,-4.457532E-1,6.446832E-2,1.0254119E-1,-1.899784E-1,-1.4367786E-1,-2.348207E-1,2.778387E-1,-2.3361018E-1,-6.538867E-1,-5.380396E-2,1.4423092E-2,1.1854836E-2,-4.8960485E-2,2.938001E-2,-1.1800751E-1,1.186826E-2,8.3970994E-2,-6.524247E-2,1.6490694E-2,-9.871605E-2,-2.7426349E-2],"categories":[],"categories_nodes":[],"categories_segments":[],"categories_sizes":[],"default_left":[0,0,0,0,0,0,0,0,0,0,0,0,0,0,0,0,0,0,0,0,0,0,0,0,0,0,0,0,0,0,0,0,0],"id":22,"left_children":[1,3,5,7,9,-1,11,13,15,-1,-1,17,19,21,-1,23,-1,25,27,29,31,-1,-1,-1,-1,-1,-1,-1,-1,-1,-1,-1,-1],"loss_changes":[2.6729023E0,4.5948505E0,2.2545192E0,3.0102515E0,3.401718E-1,0E0,1.5751277E0,2.044237E0,9.661381E-1,0E0,0E0,9.9109626E-1,2.051723E-1,1.2683445E0,0E0,2.4448669E-1,0E0,2.0435703E0,6.6662204E-1,6.0055053E-1,3.93486E-3,0E0,0E0,0E0,0E0,0E0,0E0,0E0,0E0,0E0,0E0,0E0,0E0],"parents":[2147483647,0,0,1,1,2,2,3,3,4,4,6,6,7,7,8,8,11,11,12,12,13,13,15,15,17,17,18,18,19,19,20,20],"right_children":[2,4,6,8,10,-1,12,14,16,-1,-1,18,20,22,-1,24,-1,26,28,30,32,-1,-1,-1,-1,-1,-1,-1,-1,-1,-1,-1,-1],"split_conditions":[3.963E3,3.496E3,4.37E3,3.031E3,3.913E3,-1.08911894E-1,7.763E3,2.779E3,2E0,1.3651419E-1,2.510263E-2,5.293E3,1.1816E4,1E0,1.0254119E-1,3.349E3,-1.4367786E-1,4.88E3,3E0,9.271E3,3E0,-5.380396E-2,1.4423092E-2,1.1854836E-2,-4.8960485E-2,2.938001E-2,-1.1800751E-1,1.186826E-2,8.3970994E-2,-6.524247E-2,1.6490694E-2,-9.871605E-2,-2.7426349E-2],"split_indices":[6,6,6,6,6,0,6,6,3,0,0,6,6,3,0,6,0,6,2,6,2,0,0,0,0,0,0,0,0,0,0,0,0],"split_type":[0,0,0,0,0,0,0,0,0,0,0,0,0,0,0,0,0,0,0,0,0,0,0,0,0,0,0,0,0,0,0,0,0],"sum_hessian":[9.331414E1,6.758935E1,2.5724796E1,6.2092617E1,5.496728E0,4.091503E0,2.1633293E1,5.745989E1,4.632731E0,4.41916E0,1.0775677E0,1.4526973E1,7.10632E0,5.4224262E1,3.2356231E0,3.018495E0,1.6142359E0,4.944569E0,9.582404E0,4.570341E0,2.535979E0,4.0931535E0,5.013111E1,1.4061675E0,1.6123277E0,3.3273988E0,1.6171705E0,7.180785E0,2.401619E0,2.3981252E0,2.172216E0,1.4767519E0,1.0592272E0],"tree_param":{"num_deleted":"0","num_feature":"8","num_nodes":"33","size_leaf_vector":"1"}},{"base_weights":[8.291097E-4,1.5766731E-1,-3.9081672E-1,1.0741586E-1,7.169962E-2,-7.156319E-1,-9.271617E-2,-2.3269542E-1,2.4724E-1,-5.15618E-3,-1.0313495E-1,1.7678575E-1,-5.6674176E-1,-3.1793898E-1,6.926728E-2,2.9614428E-1,-9.6278265E-2,-4.5592225E-1,4.8667455E-1,-9.741877E-2,-1.8758874E-1,2.5964912E-2,-5.969896E-2,7.530328E-2,2.0360425E-2,-9.442346E-2,-1.1309459E-2,8.609997E-2,1.1959285E-2,4.2569727E-2,-8.329104E-2],"categories":[],"categories_nodes":[],"categories_segments":[],"categories_sizes":[],"default_left":[0,0,0,0,0,0,0,0,0,0,0,0,0,0,0,0,0,0,0,0,0,0,0,0,0,0,0,0,0,0,0],"id":23,"left_children":[1,3,5,-1,7,9,11,13,15,-1,-1,17,19,21,-1,23,-1,25,27,-1,29,-1,-1,-1,-1,-1,-1,-1,-1,-1,-1],"loss_changes":[5.73282E0,3.7649353E0,2.5178113E0,0E0,3.2705522E0,6.228881E-1,2.024792E0,1.6366545E0,2.0830383E0,0E0,0E0,2.2545118E0,2.5207365E-1,1.6111281E0,0E0,1.3895247E0,0E0,3.2723737E-1,4.5272756E-1,0E0,9.4944566E-1,0E0,0E0,0E0,0E0,0E0,0E0,0E0,0E0,0E0,0E0],"parents":[2147483647,0,0,1,1,2,2,4,4,5,5,6,6,7,7,8,8,11,11,12,12,13,13,15,15,17,17,18,18,20,20],"right_children":[2,4,6,-1,8,10,12,14,16,-1,-1,18,20,22,-1,24,-1,26,28,-1,30,-1,-1,-1,-1,-1,-1,-1,-1,-1,-1],"split_conditions":[2.6E1,9E0,4.473E3,1.0741586E-1,1.377E3,2.8E1,4.8E1,2E0,7.763E3,-5.15618E-3,-1.0313495E-1,3.3E1,7.476E3,1.1E1,6.926728E-2,1.5E1,-9.6278265E-2,5.493E3,8.065E3,-9.741877E-2,8.386E3,2.5964912E-2,-5.969896E-2,7.530328E-2,2.0360425E-2,-9.442346E-2,-1.1309459E-2,8.609997E-2,1.1959285E-2,4.2569727E-2,-8.329104E-2],"split_indices":[7,7,6,0,6,7,7,4,6,0,0,7,6,7,0,7,0,6,6,0,6,0,0,0,0,0,0,0,0,0,0],"split_type":[0,0,0,0,0,0,0,0,0,0,0,0,0,0,0,0,0,0,0,0,0,0,0,0,0,0,0,0,0,0,0],"sum_hessian":[9.1327194E1,6.563891E1,2.5688286E1,6.5078483E0,5.913106E1,1.1623018E1,1.40652685E1,2.150859E1,3.762247E1,1.3384448E0,1.0284574E1,9.366885E0,4.6983833E0,1.9877436E1,1.6311564E0,3.651299E1,1.1094842E0,2.9245372E0,6.4423485E0,2.5181236E0,2.1802595E0,4.1599054E0,1.5717529E1,1.1048199E1,2.5464788E1,1.1322405E0,1.7922966E0,3.9974606E0,2.4448876E0,1.149364E0,1.0308954E0],"tree_param":{"num_deleted":"0","num_feature":"8","num_nodes":"31","size_leaf_vector":"1"}},{"base_weights":[9.171593E-3,1.4170203E-1,-3.4110373E-1,1.7972155E-1,-6.8442994E-1,-4.0804073E-1,6.759016E-2,-7.641008E-2,3.5009158E-1,-1.1436457E-1,-2.436912E-2,-5.496081E-1,1.615054E-1,3.9602643E-1,-3.1394735E-1,6.06536E-1,2.0225652E-1,-8.2680774E-1,-3.6422932E-1,9.5553085E-2,-2.849421E-1,-9.377945E-3,6.1006766E-2,-7.150396E-2,-4.6224515E-3,-6.1949133E-4,1.0438796E-1,1.1718468E-2,1.3354288E-1,-1.1595822E-1,-3.09728E-2,-1.8719092E-2,-9.363637E-2,-7.787244E-3,-5.2287307E-2],"categories":[],"categories_nodes":[],"categories_segments":[],"categories_sizes":[],"default_left":[0,0,0,0,0,0,0,0,0,0,0,0,0,0,0,0,0,0,0,0,0,0,0,0,0,0,0,0,0,0,0,0,0,0,0],"id":24,"left_children":[1,3,5,7,9,11,-1,13,15,-1,-1,17,19,21,23,25,27,29,31,-1,33,-1,-1,-1,-1,-1,-1,-1,-1,-1,-1,-1,-1,-1,-1],"loss_changes":[4.370051E0,2.2666051E0,1.7004521E0,2.908416E0,1.4544976E-1,2.067603E0,0E0,3.1767416E0,1.3876061E0,0E0,0E0,7.2061443E-1,1.6556263E0,3.582152E-1,1.2031692E0,1.6840386E0,2.3822618E0,5.87039E-2,9.691205E-1,0E0,7.8460485E-2,0E0,0E0,0E0,0E0,0E0,0E0,0E0,0E0,0E0,0E0,0E0,0E0,0E0,0E0],"parents":[2147483647,0,0,1,1,2,2,3,3,4,4,5,5,7,7,8,8,11,11,12,12,13,13,14,14,15,15,16,16,17,17,18,18,20,20],"right_children":[2,4,6,8,10,12,-1,14,16,-1,-1,18,20,22,24,26,28,30,32,-1,34,-1,-1,-1,-1,-1,-1,-1,-1,-1,-1,-1,-1,-1,-1],"split_conditions":[2.6E1,6.85E3,2E0,1.377E3,1.8E1,3E0,6.759016E-2,1.1E1,1.5E1,-1.1436457E-1,-2.436912E-2,3.6E1,1E0,4.58E2,1E0,1E1,5.234E3,6.187E3,4.8E1,9.5553085E-2,6.999E3,-9.377945E-3,6.1006766E-2,-7.150396E-2,-4.6224515E-3,-6.1949133E-4,1.0438796E-1,1.1718468E-2,1.3354288E-1,-1.1595822E-1,-3.09728E-2,-1.8719092E-2,-9.363637E-2,-7.787244E-3,-5.2287307E-2],"split_indices":[7,6,5,6,7,2,0,7,7,0,0,7,5,6,5,7,6,6,7,0,6,0,0,0,0,0,0,0,0,0,0,0,0,0,0],"split_type":[0,0,0,0,0,0,0,0,0,0,0,0,0,0,0,0,0,0,0,0,0,0,0,0,0,0,0,0,0,0,0,0,0,0,0],"sum_hessian":[9.2096E1,6.72476E1,2.4848396E1,6.503698E1,2.2106209E0,2.354246E1,1.3059376E0,2.6199924E1,3.8837055E1,1.0382645E0,1.1723564E0,1.88837E1,4.658759E0,8.542526E0,1.76574E1,1.30671425E1,2.576991E1,6.181025E0,1.2702675E1,1.7588621E0,2.899897E0,1.1487211E0,7.3938046E0,9.041695E0,8.615705E0,3.4013975E0,9.665745E0,2.3655792E1,2.114119E0,5.112562E0,1.068463E0,8.70447E0,3.9982047E0,1.5067503E0,1.3931469E0],"tree_param":{"num_deleted":"0","num_feature":"8","num_nodes":"35","size_leaf_vector":"1"}},{"base_weights":[5.992604E-4,6.522047E-1,-5.7613846E-2,-8.711743E-3,1.02815814E-1,-1.1628965E-2,-6.265445E-1,-4.4827697E-1,4.0496454E-2,-8.052019E-1,-2.0029438E-1,6.85578E-2,-6.889276E-1,2.1932824E-1,-1.119877E-1,-2.6816411E-2,-1.2214501E-1,4.0139735E-2,-8.211212E-2,-1.0355335E-1,-1.4292354E-2,-5.790791E-2,3.898734E-2,-3.524253E-2,5.231895E-2],"categories":[],"categories_nodes":[],"categories_segments":[],"categories_sizes":[],"default_left":[0,0,0,0,0,0,0,0,0,0,0,0,0,0,0,0,0,0,0,0,0,0,0,0,0],"id":25,"left_children":[1,3,5,-1,-1,7,9,11,13,15,17,-1,19,21,23,-1,-1,-1,-1,-1,-1,-1,-1,-1,-1],"loss_changes":[3.5410287E0,8.1068444E-1,2.234962E0,0E0,0E0,1.8461655E0,3.2536674E-1,2.3918824E0,2.0061238E0,1.395123E-1,8.993001E-1,0E0,3.6755967E-1,1.9323056E0,3.3628278E0,0E0,0E0,0E0,0E0,0E0,0E0,0E0,0E0,0E0,0E0],"parents":[2147483647,0,0,1,1,2,2,5,5,6,6,7,7,8,8,9,9,10,10,12,12,13,13,14,14],"right_children":[2,4,6,-1,-1,8,10,12,14,16,18,-1,20,22,24,-1,-1,-1,-1,-1,-1,-1,-1,-1,-1],"split_conditions":[9E0,4.58E2,4.8E1,-8.711743E-3,1.02815814E-1,1.024E3,7.408E3,6.26E2,1.9E1,4.795E3,8.386E3,6.85578E-2,1.3E1,1E0,5.293E3,-2.6816411E-2,-1.2214501E-1,4.0139735E-2,-8.211212E-2,-1.0355335E-1,-1.4292354E-2,-5.790791E-2,3.898734E-2,-3.524253E-2,5.231895E-2],"split_indices":[7,6,7,0,0,6,6,6,7,6,6,0,7,3,6,0,0,0,0,0,0,0,0,0,0],"split_type":[0,0,0,0,0,0,0,0,0,0,0,0,0,0,0,0,0,0,0,0,0,0,0,0,0],"sum_hessian":[9.1361465E1,6.6558466E0,8.470562E1,1.1518515E0,5.503995E0,7.9315254E1,5.3903637E0,7.6481023E0,7.166715E1,3.1718752E0,2.2184885E0,1.2787868E0,6.3693156E0,3.2782185E1,3.8884964E1,1.0397663E0,2.132109E0,1.1470014E0,1.071487E0,5.063693E0,1.3056223E0,3.0412447E0,2.9740942E1,3.006941E1,8.815554E0],"tree_param":{"num_deleted":"0","num_feature":"8","num_nodes":"25","size_leaf_vector":"1"}},{"base_weights":[-6.4334795E-2,5.7702804E-1,-1.1816658E-1,-4.192651E-2,1.0704889E-1,-1.5394397E-2,-3.4855995E-1,-1.0292794E-1,3.854774E-1,-7.971132E-2,-1.6535573E-1,-1.5411992E-1,8.155964E-2,-8.169614E-2,6.6065496E-1,7.438629E-3,-5.973253E-1,-4.2938918E-2,1.10566905E-2,3.1461425E-2,-8.737514E-2,1.1679246E-1,5.5010796E-2,-2.725861E-2,1.1505412E-1,-9.2838354E-2,-2.6377598E-2],"categories":[],"categories_nodes":[],"categories_segments":[],"categories_sizes":[],"default_left":[0,0,0,0,0,0,0,0,0,0,0,0,0,0,0,0,0,0,0,0,0,0,0,0,0,0,0],"id":26,"left_children":[1,3,5,-1,-1,7,9,11,13,-1,15,17,-1,19,21,23,25,-1,-1,-1,-1,-1,-1,-1,-1,-1,-1],"loss_changes":[3.2402022E0,1.8717036E0,2.0212345E0,0E0,0E0,2.1532724E0,1.1724958E0,1.9722683E0,1.4688668E0,0E0,1.26767E0,2.0336208E0,0E0,1.1097102E0,1.7083883E-2,2.670176E0,7.719457E-2,0E0,0E0,0E0,0E0,0E0,0E0,0E0,0E0,0E0,0E0],"parents":[2147483647,0,0,1,1,2,2,5,5,6,6,7,7,8,8,10,10,11,11,13,13,14,14,15,15,16,16],"right_children":[2,4,6,-1,-1,8,10,12,14,-1,16,18,-1,20,22,24,26,-1,-1,-1,-1,-1,-1,-1,-1,-1,-1],"split_conditions":[9E0,2.7E1,2.6E1,-4.192651E-2,1.0704889E-1,1E0,3E1,5.8E1,1.6E1,-7.971132E-2,4.8E1,1E0,8.155964E-2,1.3E1,2.2E1,3.9E1,1E0,-4.2938918E-2,1.10566905E-2,3.1461425E-2,-8.737514E-2,1.1679246E-1,5.5010796E-2,-2.725861E-2,1.1505412E-1,-9.2838354E-2,-2.6377598E-2],"split_indices":[7,0,7,0,0,4,0,0,7,0,7,5,0,7,7,7,5,0,0,0,0,0,0,0,0,0,0],"split_type":[0,0,0,0,0,0,0,0,0,0,0,0,0,0,0,0,0,0,0,0,0,0,0,0,0,0,0],"sum_hessian":[9.087407E1,6.284164E0,8.4589905E1,1.2801085E0,5.0040555E0,5.923404E1,2.5355867E1,4.9227962E1,1.0006077E1,9.43204E0,1.5923827E1,4.6736904E1,2.4910555E0,3.9697242E0,6.036352E0,1.2076017E1,3.8478093E0,2.6716404E1,2.00205E1,2.9445362E0,1.0251881E0,1.63876E0,4.3975925E0,1.0290925E1,1.7850921E0,2.3506622E0,1.4971471E0],"tree_param":{"num_deleted":"0","num_feature":"8","num_nodes":"27","size_leaf_vector":"1"}},{"base_weights":[-2.5419585E-2,-6.436262E-2,4.275419E-1,-2.5766855E-1,3.875264E-2,-4.1852728E-2,8.3142996E-2,-3.3336073E-1,6.1462265E-2,8.853242E-2,-5.220127E-2,2.1284433E-1,-4.0429008E-1,1.54780615E-2,5.480666E-1,-2.0881584E-2,6.761265E-2,-9.702306E-2,-3.3407934E-2,1.0705581E-2,-6.908217E-2,1.2320534E-1,3.795331E-2],"categories":[],"categories_nodes":[],"categories_segments":[],"categories_sizes":[],"default_left":[0,0,0,0,0,0,0,0,0,0,0,0,0,0,0,0,0,0,0,0,0,0,0],"id":27,"left_children":[1,3,5,7,9,-1,-1,11,-1,13,-1,15,17,19,21,-1,-1,-1,-1,-1,-1,-1,-1],"loss_changes":[1.5999267E0,1.6634597E0,1.3423917E0,1.7587326E0,1.2387934E0,0E0,0E0,1.126255E0,0E0,1.6766233E0,0E0,5.114089E-1,1.0227025E0,1.6604943E0,4.2470765E-1,0E0,0E0,0E0,0E0,0E0,0E0,0E0,0E0],"parents":[2147483647,0,0,1,1,2,2,3,3,4,4,7,7,9,9,11,11,12,12,13,13,14,14],"right_children":[2,4,6,8,10,-1,-1,12,-1,14,-1,16,18,20,22,-1,-1,-1,-1,-1,-1,-1,-1],"split_conditions":[2E0,1E0,9.47E2,2E0,7.685E3,-4.1852728E-2,8.3142996E-2,8.82E2,6.1462265E-2,5.293E3,-5.220127E-2,6.52E2,1.364E3,4.21E3,5.998E3,-2.0881584E-2,6.761265E-2,-9.702306E-2,-3.3407934E-2,1.0705581E-2,-6.908217E-2,1.2320534E-1,3.795331E-2],"split_indices":[4,1,6,5,6,0,0,6,0,6,0,6,6,6,6,0,0,0,0,0,0,0,0],"split_type":[0,0,0,0,0,0,0,0,0,0,0,0,0,0,0,0,0,0,0,0,0,0,0],"sum_hessian":[8.8140366E1,8.195247E1,6.1878967E0,2.7987192E1,5.3965275E1,1.2459506E0,4.9419465E0,2.5849537E1,2.1376553E0,4.9195335E1,4.769939E0,2.7410173E0,2.3108519E1,4.333918E1,5.8561554E0,1.4510467E0,1.2899705E0,5.7583246E0,1.7350195E1,3.9375412E1,3.9637678E0,1.2400337E0,4.616122E0],"tree_param":{"num_deleted":"0","num_feature":"8","num_nodes":"23","size_leaf_vector":"1"}},{"base_weights":[-1.5450923E-2,5.196537E-1,-6.137564E-2,1.8749116E-2,1.00641645E-1,2.3178896E-2,-2.6290348E-1,-9.95053E-2,9.685736E-2,-5.340787E-1,-1.0946117E-1,-7.320381E-2,-2.8307118E-2,3.5277772E-1,4.665935E-2,-9.63818E-2,1.2108852E-2,7.292772E-2,-6.244047E-2,-7.645681E-2,4.845276E-3,8.204649E-2,4.1225655E-3,-4.6365573E-3,7.3239475E-2,-4.8665153E-3,4.349357E-2],"categories":[],"categories_nodes":[],"categories_segments":[],"categories_sizes":[],"default_left":[0,0,0,0,0,0,0,0,0,0,0,0,0,0,0,0,0,0,0,0,0,0,0,0,0,0,0],"id":28,"left_children":[1,3,5,-1,-1,7,9,11,13,15,17,-1,19,21,23,-1,-1,25,-1,-1,-1,-1,-1,-1,-1,-1,-1],"loss_changes":[2.1599667E0,5.504285E-1,1.3803163E0,0E0,0E0,5.3146565E-1,9.3671453E-1,7.141736E-1,4.5341015E-1,1.1538875E0,1.1512814E0,0E0,7.638459E-1,5.009315E-1,1.3671055E0,0E0,0E0,3.566298E-1,0E0,0E0,0E0,0E0,0E0,0E0,0E0,0E0,0E0],"parents":[2147483647,0,0,1,1,2,2,5,5,6,6,7,7,8,8,9,9,10,10,12,12,13,13,14,14,17,17],"right_children":[2,4,6,-1,-1,8,10,12,14,16,18,-1,20,22,24,-1,-1,26,-1,-1,-1,-1,-1,-1,-1,-1,-1],"split_conditions":[9E0,1E0,2.6E1,1.8749116E-2,1.00641645E-1,1E0,3.6E1,1E1,1.2E1,3E0,4.8E1,-7.320381E-2,1E0,2E0,3E0,-9.63818E-2,1.2108852E-2,4.2E1,-6.244047E-2,-7.645681E-2,4.845276E-3,8.204649E-2,4.1225655E-3,-4.6365573E-3,7.3239475E-2,-4.8665153E-3,4.349357E-2],"split_indices":[7,1,7,0,0,1,7,7,7,2,7,0,2,2,2,0,0,7,0,0,0,0,0,0,0,0,0],"split_type":[0,0,0,0,0,0,0,0,0,0,0,0,0,0,0,0,0,0,0,0,0,0,0,0,0,0,0],"sum_hessian":[8.559667E1,5.9502573E0,7.9646416E1,3.0294864E0,2.9207711E0,5.672953E1,2.2916885E1,2.1154316E1,3.5575214E1,7.3849597E0,1.5531925E1,1.9005018E0,1.9253815E1,4.845267E0,3.0729948E1,5.4206147E0,1.964345E0,1.0943575E1,4.588351E0,1.1845832E0,1.8069231E1,2.082532E0,2.762735E0,2.7306606E1,3.4233415E0,8.296531E0,2.6470442E0],"tree_param":{"num_deleted":"0","num_feature":"8","num_nodes":"27","size_leaf_vector":"1"}},{"base_weights":[1.5130739E-2,3.96352E-2,-6.832053E-2,-1.3246596E-1,1.09316416E-1,1.1811852E-1,-4.9574617E-1,4.771838E-1,3.407606E-2,-1.4935364E-1,7.343964E-1,-7.181762E-1,5.3389482E-2,8.394623E-2,1.5675277E-1,-3.2333046E-1,1.1840769E-1,9.076758E-3,-1.01470634E-1,3.929176E-2,1.24669686E-1,-1.5028219E-1,-2.9054185E-2,4.976388E-2,-7.6996316E-3,-7.234511E-2,-2.434973E-2,1.3190283E-1,7.87603E-3],"categories":[],"categories_nodes":[],"categories_segments":[],"categories_sizes":[],"default_left":[0,0,0,0,0,0,0,0,0,0,0,0,0,0,0,0,0,0,0,0,0,0,0,0,0,0,0,0,0],"id":29,"left_children":[1,3,-1,5,7,9,11,13,15,17,19,21,-1,-1,23,25,27,-1,-1,-1,-1,-1,-1,-1,-1,-1,-1,-1,-1],"loss_changes":[1.1909504E0,1.0401049E0,0E0,2.3434713E0,1.6838653E0,2.6912942E0,2.3978877E0,4.552703E-1,1.6077435E0,1.6768869E0,1.8515539E-1,1.6307888E0,0E0,0E0,2.6015255E-1,2.1940124E-1,2.159669E0,0E0,0E0,0E0,0E0,0E0,0E0,0E0,0E0,0E0,0E0,0E0,0E0],"parents":[2147483647,0,0,1,1,3,3,4,4,5,5,6,6,7,7,8,8,9,9,10,10,11,11,14,14,15,15,16,16],"right_children":[2,4,-1,6,8,10,12,14,16,18,20,22,-1,-1,24,26,28,-1,-1,-1,-1,-1,-1,-1,-1,-1,-1,-1,-1],"split_conditions":[1.0961E4,1.377E3,-6.832053E-2,1.19E3,1.882E3,1.024E3,1E0,1E0,2.323E3,8.88E2,1E0,1.289E3,5.3389482E-2,8.394623E-2,1.498E3,1.941E3,2.359E3,9.076758E-3,-1.01470634E-1,3.929176E-2,1.24669686E-1,-1.5028219E-1,-2.9054185E-2,4.976388E-2,-7.6996316E-3,-7.234511E-2,-2.434973E-2,1.3190283E-1,7.87603E-3],"split_indices":[6,6,0,6,6,6,4,5,6,6,5,6,0,0,6,6,6,0,0,0,0,0,0,0,0,0,0,0,0],"split_type":[0,0,0,0,0,0,0,0,0,0,0,0,0,0,0,0,0,0,0,0,0,0,0,0,0,0,0,0,0],"sum_hessian":[8.743326E1,8.452414E1,2.9091125E0,2.410002E1,6.042412E1,1.4661573E1,9.438447E0,9.353005E0,5.1071117E1,1.0752505E1,3.9090672E0,7.7441874E0,1.6942595E0,5.47494E0,3.878065E0,9.208876E0,4.186224E1,8.638566E0,2.1139398E0,2.1318266E0,1.7772406E0,3.4077873E0,4.3364005E0,1.5197594E0,2.3583057E0,2.2657452E0,6.9431305E0,1.5412742E0,4.032097E1],"tree_param":{"num_deleted":"0","num_feature":"8","num_nodes":"29","size_leaf_vector":"1"}},{"base_weights":[2.3128113E-2,6.7368515E-2,-6.2588507E-1,6.09512E-1,1.9066464E-2,-2.4459861E-2,-1.0156936E-1,-3.8364343E-2,1.1270009E-1,-1.3338248E-1,1.6885053E-1,1.0013338E-1,-5.123331E-1,1.3016975E-1,9.244E-2,-5.307827E-2,4.357555E-2,-1.4792367E-2,-1.24704964E-1,-1.2034676E-2,3.893012E-2],"categories":[],"categories_nodes":[],"categories_segments":[],"categories_sizes":[],"default_left":[0,0,0,0,0,0,0,0,0,0,0,0,0,0,0,0,0,0,0,0,0],"id":30,"left_children":[1,3,5,7,9,-1,-1,-1,-1,11,13,15,17,-1,19,-1,-1,-1,-1,-1,-1],"loss_changes":[2.5858793E0,2.1839063E0,2.4224806E-1,1.8370664E0,1.8039503E0,0E0,0E0,0E0,0E0,3.5221176E0,2.4347143E0,3.128018E0,2.5773983E0,0E0,1.4620013E0,0E0,0E0,0E0,0E0,0E0,0E0],"parents":[2147483647,0,0,1,1,2,2,3,3,4,4,9,9,10,10,11,11,12,12,14,14],"right_children":[2,4,6,8,10,-1,-1,-1,-1,12,14,16,18,-1,20,-1,-1,-1,-1,-1,-1],"split_conditions":[4.8E1,9E0,3.1E1,2.7E1,2.315E3,-2.4459861E-2,-1.0156936E-1,-3.8364343E-2,1.1270009E-1,1.7E1,2.408E3,9.76E2,1.778E3,1.3016975E-1,1E0,-5.307827E-2,4.357555E-2,-1.4792367E-2,-1.24704964E-1,-1.2034676E-2,3.893012E-2],"split_indices":[7,7,0,0,6,0,0,0,0,7,6,6,6,0,5,0,0,0,0,0,0],"split_type":[0,0,0,0,0,0,0,0,0,0,0,0,0,0,0,0,0,0,0,0,0],"sum_hessian":[8.759225E1,8.28415E1,4.750746E0,5.8264556E0,7.7015045E1,1.8160424E0,2.9347036E0,1.253514E0,4.5729413E0,3.8222256E1,3.8792786E1,2.4104446E1,1.4117811E1,2.2484677E0,3.654432E1,7.383451E0,1.6720995E1,8.114063E0,6.003748E0,1.9578201E1,1.6966118E1],"tree_param":{"num_deleted":"0","num_feature":"8","num_nodes":"21","size_leaf_vector":"1"}},{"base_weights":[-6.1129006E-3,6.6514194E-1,-5.769507E-2,-6.505645E-3,1.05438836E-1,3.4078166E-2,-2.7587825E-1,2.3598298E-1,-9.8286495E-2,-1.2231508E-1,-1.7497544E-1,9.7246796E-2,7.9730165E-1,-5.1100266E-1,1.367808E-1,-4.8919326E-1,2.328749E-2,3.111734E-2,-1.2603182E-1,1.343641E-1,9.805717E-4,-1.2895854E-1,-3.0592368E-3,5.832546E-2,-3.6139496E-2,-3.633028E-2,-1.0560134E-1,2.8195823E-2,-6.1346974E-2],"categories":[],"categories_nodes":[],"categories_segments":[],"categories_sizes":[],"default_left":[0,0,0,0,0,0,0,0,0,0,0,0,0,0,0,0,0,0,0,0,0,0,0,0,0,0,0,0,0],"id":31,"left_children":[1,3,5,-1,-1,7,9,11,13,-1,15,17,19,21,23,25,27,-1,-1,-1,-1,-1,-1,-1,-1,-1,-1,-1,-1],"loss_changes":[3.0797873E0,6.980963E-1,1.6611514E0,0E0,0E0,1.5988185E0,1.4787996E0,1.7634244E0,3.5932236E0,0E0,1.4146898E0,3.2673025E0,8.3562374E-1,3.1078737E0,3.2110212E0,3.6630702E-1,1.5138197E0,0E0,0E0,0E0,0E0,0E0,0E0,0E0,0E0,0E0,0E0,0E0,0E0],"parents":[2147483647,0,0,1,1,2,2,5,5,6,6,7,7,8,8,10,10,11,11,12,12,13,13,14,14,15,15,16,16],"right_children":[2,4,6,-1,-1,8,10,12,14,-1,16,18,20,22,24,26,28,-1,-1,-1,-1,-1,-1,-1,-1,-1,-1,-1,-1],"split_conditions":[9E0,2.7E1,2.6E1,-6.505645E-3,1.05438836E-1,2.8E1,2.273E3,3.496E3,1.474E3,-1.2231508E-1,3E1,3.031E3,4.057E3,3.8E1,3.114E3,6.204E3,4.8E1,3.111734E-2,-1.2603182E-1,1.343641E-1,9.805717E-4,-1.2895854E-1,-3.0592368E-3,5.832546E-2,-3.6139496E-2,-3.633028E-2,-1.0560134E-1,2.8195823E-2,-6.1346974E-2],"split_indices":[7,0,7,0,0,0,6,6,6,0,0,6,6,0,6,6,7,0,0,0,0,0,0,0,0,0,0,0,0],"split_type":[0,0,0,0,0,0,0,0,0,0,0,0,0,0,0,0,0,0,0,0,0,0,0,0,0,0,0,0,0],"sum_hessian":[8.6839165E1,5.3480835E0,8.149108E1,1.0111963E0,4.3368874E0,5.795682E1,2.3534262E1,2.2639868E1,3.531695E1,2.008604E0,2.1525658E1,1.9093855E1,3.5460126E0,1.2389828E1,2.2927126E1,7.75992E0,1.3765738E1,1.7535633E1,1.5582211E0,2.4964752E0,1.0495374E0,5.7247324E0,6.6650953E0,1.3046201E1,9.880924E0,5.8259325E0,1.9339874E0,1.0301194E1,3.4645433E0],"tree_param":{"num_deleted":"0","num_feature":"8","num_nodes":"29","size_leaf_vector":"1"}},{"base_weights":[1.9727867E-2,1.378203E-1,-1.0907165E-1,3.2040178E-5,3.7252745E-1,-1.6436082E-1,4.2089292E-1,-9.972245E-2,6.490783E-2,8.5906756E-1,5.8399577E-2,-4.372324E-1,-6.5421894E-2,7.883764E-2,1.3371544E-2,-8.608257E-2,2.6538402E-1,1.3431911E-1,-3.3113845E-3,2.5349557E-1,-2.6356006E-1,-1.3603845E-1,-1.10809945E-1,1.14210546E-1,-1.9890144E-1,-3.1523854E-2,3.9847717E-2,-6.3389033E-4,6.0142677E-2,-4.0321365E-2,6.593696E-2,3.999501E-2,-6.6674866E-2,2.2586694E-2,-3.5722613E-2,-2.3394834E-2,5.357618E-2,-5.4866187E-2,1.1001854E-2],"categories":[],"categories_nodes":[],"categories_segments":[],"categories_sizes":[],"default_left":[0,0,0,0,0,0,0,0,0,0,0,0,0,0,0,0,0,0,0,0,0,0,0,0,0,0,0,0,0,0,0,0,0,0,0,0,0,0,0],"id":32,"left_children":[1,3,5,7,9,11,13,-1,15,17,19,21,23,-1,-1,25,27,-1,-1,29,31,33,-1,35,37,-1,-1,-1,-1,-1,-1,-1,-1,-1,-1,-1,-1,-1,-1],"loss_changes":[1.3369744E0,1.480572E0,1.3036215E0,1.5332017E0,2.538096E0,1.0207522E0,1.8824989E-1,0E0,8.83686E-1,1.0306015E0,7.8060323E-1,1.1520557E0,7.348776E-1,0E0,0E0,1.113413E0,6.6454124E-1,0E0,0E0,1.2380829E0,8.3553326E-1,3.5073376E-1,0E0,1.2362345E0,1.1336219E0,0E0,0E0,0E0,0E0,0E0,0E0,0E0,0E0,0E0,0E0,0E0,0E0,0E0,0E0],"parents":[2147483647,0,0,1,1,2,2,3,3,4,4,5,5,6,6,8,8,9,9,10,10,11,11,12,12,15,15,16,16,19,19,20,20,21,21,23,23,24,24],"right_children":[2,4,6,8,10,12,14,-1,16,18,20,22,24,-1,-1,26,28,-1,-1,30,32,34,-1,36,38,-1,-1,-1,-1,-1,-1,-1,-1,-1,-1,-1,-1,-1,-1],"split_conditions":[1.9E1,3.6E1,2E0,1E0,1.2E1,2.6E1,3.2E1,-9.972245E-2,1.3E1,6E1,4.6E1,3.1E1,3.3E1,7.883764E-2,1.3371544E-2,3E1,2.7E1,1.3431911E-1,-3.3113845E-3,3.8E1,1E0,2.3E1,-1.10809945E-1,1E0,4.3E1,-3.1523854E-2,3.9847717E-2,-6.3389033E-4,6.0142677E-2,-4.0321365E-2,6.593696E-2,3.999501E-2,-6.6674866E-2,2.2586694E-2,-3.5722613E-2,-2.3394834E-2,5.357618E-2,-5.4866187E-2,1.1001854E-2],"split_indices":[7,0,5,3,7,0,0,0,7,0,0,7,0,0,0,0,0,0,0,0,3,0,0,5,0,0,0,0,0,0,0,0,0,0,0,0,0,0,0],"split_type":[0,0,0,0,0,0,0,0,0,0,0,0,0,0,0,0,0,0,0,0,0,0,0,0,0,0,0,0,0,0,0,0,0,0,0,0,0,0,0],"sum_hessian":[8.591127E1,4.4781975E1,4.1129295E1,2.8847036E1,1.5934938E1,3.786849E1,3.2608094E0,1.4082644E0,2.7438772E1,5.571184E0,1.0363754E1,9.166965E0,2.870152E1,1.4913096E0,1.7694997E0,1.5976523E1,1.1462249E1,4.521293E0,1.0498911E0,6.5857024E0,3.7780514E0,6.075684E0,3.091281E0,1.229699E1,1.6404531E1,1.17018795E1,4.274644E0,5.2383165E0,6.2239323E0,1.9720383E0,4.613664E0,1.0748688E0,2.7031827E0,1.7986349E0,4.277049E0,6.3832088E0,5.913782E0,8.915403E0,7.489127E0],"tree_param":{"num_deleted":"0","num_feature":"8","num_nodes":"39","size_leaf_vector":"1"}},{"base_weights":[7.468052E-3,-8.621112E-2,5.7021827E-2,-1.7951417E-1,4.5642543E-1,1.8686026E-1,-6.620023E-2,4.1596968E-2,-2.4840117E-1,-1.2372363E-2,6.7384E-1,-2.371205E-1,2.3998535E-1,-7.7461295E-2,4.717188E-2,-5.352881E-1,-1.07919976E-1,2.4699608E-2,1.039133E-1,-5.2780773E-2,7.377399E-3,1.6404398E-1,1.1557698E-1,3.5655847E-1,-7.05826E-2,-8.604432E-2,1.5970897E-2,-6.38485E-4,-5.2708093E-2,4.166132E-2,-1.4658807E-2,6.9492854E-2,-1.8869696E-2,-2.6610421E-2,3.453933E-2],"categories":[],"categories_nodes":[],"categories_segments":[],"categories_sizes":[],"default_left":[0,0,0,0,0,0,0,0,0,0,0,0,0,0,0,0,0,0,0,0,0,0,0,0,0,0,0,0,0,0,0,0,0,0,0],"id":33,"left_children":[1,3,5,7,9,11,13,-1,15,-1,17,19,21,-1,23,25,27,-1,-1,-1,-1,29,-1,31,33,-1,-1,-1,-1,-1,-1,-1,-1,-1,-1],"loss_changes":[3.9766794E-1,1.5840535E0,9.072999E-1,9.7439814E-1,6.1979693E-1,6.7628706E-1,1.793158E0,0E0,8.868605E-1,0E0,5.6250095E-2,1.9930594E-1,1.0811503E0,0E0,9.4207996E-1,6.9755054E-1,5.1771605E-1,0E0,0E0,0E0,0E0,1.052226E0,0E0,7.090331E-1,9.113984E-1,0E0,0E0,0E0,0E0,0E0,0E0,0E0,0E0,0E0,0E0],"parents":[2147483647,0,0,1,1,2,2,3,3,4,4,5,5,6,6,8,8,10,10,11,11,12,12,14,14,15,15,16,16,21,21,23,23,24,24],"right_children":[2,4,6,8,10,12,14,-1,16,-1,18,20,22,-1,24,26,28,-1,-1,-1,-1,30,-1,32,34,-1,-1,-1,-1,-1,-1,-1,-1,-1,-1],"split_conditions":[1E0,4.3E1,3.3E1,2.3E1,1E0,1E0,3.5E1,4.1596968E-2,2E0,-1.2372363E-2,5.4E1,3E1,3.2E1,-7.7461295E-2,2E0,3.3E1,3.4E1,2.4699608E-2,1.039133E-1,-5.2780773E-2,7.377399E-3,2.8E1,1.1557698E-1,5.3E1,3E0,-8.604432E-2,1.5970897E-2,-6.38485E-4,-5.2708093E-2,4.166132E-2,-1.4658807E-2,6.9492854E-2,-1.8869696E-2,-2.6610421E-2,3.453933E-2],"split_indices":[1,0,0,0,3,3,0,0,2,0,0,0,0,0,2,0,0,0,0,0,0,0,0,0,2,0,0,0,0,0,0,0,0,0,0],"split_type":[0,0,0,0,0,0,0,0,0,0,0,0,0,0,0,0,0,0,0,0,0,0,0,0,0,0,0,0,0,0,0,0,0,0,0],"sum_hessian":[8.36055E1,2.8668758E1,5.493674E1,2.503357E1,3.6351883E0,2.6498724E1,2.8438019E1,2.594944E0,2.2438625E1,1.1870542E0,2.4481342E0,2.5649476E0,2.3933777E1,4.2699847E0,2.4168034E1,6.452043E0,1.5986583E1,1.0169384E0,1.4311956E0,1.3889337E0,1.1760141E0,2.2544497E1,1.3892809E0,6.1035814E0,1.8064453E1,5.4131374E0,1.0389055E0,1.2624264E1,3.362319E0,1.4315249E1,8.229246E0,4.4617567E0,1.6418247E0,1.3197495E1,4.866957E0],"tree_param":{"num_deleted":"0","num_feature":"8","num_nodes":"35","size_leaf_vector":"1"}},{"base_weights":[-1.7881876E-2,5.522899E-2,-2.1279815E-1,5.000424E-1,5.5038785E-3,-6.3921565E-1,-1.1361938E-1,1.1314696E-1,7.1507174E-1,2.2675622E-1,-5.7213634E-2,-1.3196479E-1,1.0058783E-2,-2.0323902E-1,1.5717681E-1,6.0327136E-4,2.0571185E-2,1.1917133E-1,3.4841586E-2,-2.2559589E-1,7.791003E-1,-1.2058867E-1,3.1377327E-1,1.37787815E-2,-4.481556E-1,-4.1005313E-2,3.5036817E-1,4.260791E-2,-6.4692706E-2,1.2581138E-1,-5.6867762E-3,2.8611232E-2,-2.2809025E-2,6.856523E-2,-7.54728E-3,-2.5165385E-2,5.913245E-2,-2.770675E-2,-9.2356905E-2,7.7586606E-2,7.3511237E-3],"categories":[],"categories_nodes":[],"categories_segments":[],"categories_sizes":[],"default_left":[0,0,0,0,0,0,0,0,0,0,0,0,0,0,0,0,0,0,0,0,0,0,0,0,0,0,0,0,0,0,0,0,0,0,0,0,0,0,0,0,0],"id":34,"left_children":[1,3,5,7,9,11,13,15,17,19,21,-1,-1,23,25,-1,-1,-1,-1,27,29,31,33,35,37,-1,39,-1,-1,-1,-1,-1,-1,-1,-1,-1,-1,-1,-1,-1,-1],"loss_changes":[1.1810722E0,1.3346633E0,8.826734E-1,4.2396712E-1,7.8169197E-1,1.1642265E0,5.062082E-1,1.5612919E-2,8.7890506E-2,3.283088E0,1.0714178E0,0E0,0E0,8.0977076E-1,6.0508823E-1,0E0,0E0,0E0,0E0,1.3049815E0,9.4026065E-1,7.5020534E-1,5.603079E-1,9.076109E-1,2.876283E-1,0E0,2.7839243E-1,0E0,0E0,0E0,0E0,0E0,0E0,0E0,0E0,0E0,0E0,0E0,0E0,0E0,0E0],"parents":[2147483647,0,0,1,1,2,2,3,3,4,4,5,5,6,6,7,7,8,8,9,9,10,10,13,13,14,14,19,19,20,20,21,21,22,22,23,23,24,24,26,26],"right_children":[2,4,6,8,10,12,14,16,18,20,22,-1,-1,24,26,-1,-1,-1,-1,28,30,32,34,36,38,-1,40,-1,-1,-1,-1,-1,-1,-1,-1,-1,-1,-1,-1,-1,-1],"split_conditions":[2.6E1,2.3E1,2E0,1.3E1,1.2E1,3.5E1,3E0,1E0,1E0,3.6E1,3E0,-1.3196479E-1,1.0058783E-2,3.3E1,3E1,6.0327136E-4,2.0571185E-2,1.1917133E-1,3.4841586E-2,2.7E1,6E1,2.5E1,3.7E1,3E1,3.9E1,-4.1005313E-2,4.1E1,4.260791E-2,-6.4692706E-2,1.2581138E-1,-5.6867762E-3,2.8611232E-2,-2.2809025E-2,6.856523E-2,-7.54728E-3,-2.5165385E-2,5.913245E-2,-2.770675E-2,-9.2356905E-2,7.7586606E-2,7.3511237E-3],"split_indices":[7,0,2,7,7,0,2,1,1,0,2,0,0,0,0,0,0,0,0,0,0,0,0,0,7,0,0,0,0,0,0,0,0,0,0,0,0,0,0,0,0],"split_type":[0,0,0,0,0,0,0,0,0,0,0,0,0,0,0,0,0,0,0,0,0,0,0,0,0,0,0,0,0,0,0,0,0,0,0,0,0,0,0,0,0],"sum_hessian":[8.105466E1,5.9466213E1,2.1588444E1,5.068659E0,5.4397556E1,3.0462136E0,1.8542229E1,2.3559208E0,2.712738E0,1.1436568E1,4.2960987E1,1.7279519E0,1.3182617E0,1.4119031E1,4.4231987E0,1.0121744E0,1.3437463E0,1.1509422E0,1.561796E0,6.6126146E0,4.8239536E0,3.726929E1,5.691695E0,7.986248E0,6.1327825E0,1.1011827E0,3.322016E0,2.1092174E0,4.5033975E0,3.7867587E0,1.0371948E0,4.736562E0,3.253273E1,3.353663E0,2.3380322E0,5.8138595E0,2.1723886E0,4.1819587E0,1.9508243E0,1.2495008E0,2.0725152E0],"tree_param":{"num_deleted":"0","num_feature":"8","num_nodes":"41","size_leaf_vector":"1"}},{"base_weights":[1.1668385E-2,-3.2613136E-2,2.2121684E-1,-1.1069046E-1,7.0101E-2,6.086811E-2,1.1022074E-1,-7.502319E-2,-2.2959483E-1,-6.201291E-2,1.4267887E-1,1.974059E-2,6.300521E-2,-3.323902E-2,2.6107966E-3,1.424724E-2,-7.525207E-2,-2.4434924E-2,5.3295255E-2,9.1995485E-2,4.3964274E-2,-8.704177E-2,1.8016407E-1,-1.463531E-2,5.00468E-3,1.522854E-2,-1.8673413E-3,-6.1776266E-2,1.2039663E-2,6.40209E-2,-1.5233205E-2],"categories":[],"categories_nodes":[],"categories_segments":[],"categories_sizes":[],"default_left":[0,0,0,0,0,0,0,0,0,0,0,0,0,0,0,0,0,0,0,0,0,0,0,0,0,0,0,0,0,0,0],"id":35,"left_children":[1,3,5,7,9,-1,11,13,15,17,19,21,-1,-1,23,-1,-1,-1,-1,25,-1,27,29,-1,-1,-1,-1,-1,-1,-1,-1],"loss_changes":[7.942405E-1,5.762862E-1,3.566271E-1,1.5523052E-1,3.0827767E-1,0E0,3.8270527E-1,4.5937246E-1,1.1146324E0,7.7432126E-1,1.7118984E-1,1.9350009E-1,0E0,0E0,1.02833405E-1,0E0,0E0,0E0,0E0,4.8490822E-2,0E0,5.244033E-1,4.7193944E-1,0E0,0E0,0E0,0E0,0E0,0E0,0E0,0E0],"parents":[2147483647,0,0,1,1,2,2,3,3,4,4,6,6,7,7,8,8,9,9,10,10,11,11,14,14,19,19,21,21,22,22],"right_children":[2,4,6,8,10,-1,12,14,16,18,20,22,-1,-1,24,-1,-1,-1,-1,26,-1,28,30,-1,-1,-1,-1,-1,-1,-1,-1],"split_conditions":[1E0,1E0,1E0,2E0,1E0,6.086811E-2,2E0,1E0,1E0,2E0,2E0,2E0,6.300521E-2,-3.323902E-2,1E0,1.424724E-2,-7.525207E-2,-2.4434924E-2,5.3295255E-2,2E0,4.3964274E-2,1E0,1E0,-1.463531E-2,5.00468E-3,1.522854E-2,-1.8673413E-3,-6.1776266E-2,1.2039663E-2,6.40209E-2,-1.5233205E-2],"split_indices":[4,5,5,3,1,0,5,1,1,5,3,4,0,0,3,0,0,0,0,5,0,1,1,0,0,0,0,0,0,0,0],"split_type":[0,0,0,0,0,0,0,0,0,0,0,0,0,0,0,0,0,0,0,0,0,0,0,0,0,0,0,0,0,0,0],"sum_hessian":[8.381683E1,6.9891754E1,1.3925075E1,3.9663902E1,3.0227854E1,3.3270547E0,1.0598021E1,3.1766102E1,7.8977995E0,1.0769549E1,1.9458305E1,9.380277E0,1.2177436E0,8.87121E0,2.2894892E1,4.350935E0,3.5468645E0,8.977637E0,1.791912E0,1.661329E1,2.8450146E0,5.9063015E0,3.4739747E0,4.930262E0,1.796463E1,1.3370659E1,3.2426307E0,1.3496256E0,4.5566764E0,1.3760341E0,2.0979407E0],"tree_param":{"num_deleted":"0","num_feature":"8","num_nodes":"31","size_leaf_vector":"1"}},{"base_weights":[-4.328437E-3,-3.1885084E-2,7.650909E-2,-1.0901463E-2,-9.725534E-2,-1.5774804E-1,6.352555E-2,-2.7053094E-1,8.59994E-2,2.965005E-1,-4.3313157E-2,-5.0940365E-3,-5.6035545E-2,9.693333E-2,9.905049E-3,-8.0313206E-2,9.825793E-3],"categories":[],"categories_nodes":[],"categories_segments":[],"categories_sizes":[],"default_left":[0,0,0,0,0,0,0,0,0,0,0,0,0,0,0,0,0],"id":36,"left_children":[1,3,-1,5,-1,7,9,11,-1,13,15,-1,-1,-1,-1,-1,-1],"loss_changes":[1.37142E0,1.1950454E0,0E0,8.723141E-1,0E0,2.654728E0,1.3338519E0,8.819752E-1,0E0,1.6041543E0,2.5857575E0,0E0,0E0,0E0,0E0,0E0,0E0],"parents":[2147483647,0,0,1,1,3,3,5,5,6,6,7,7,9,9,10,10],"right_children":[2,4,-1,6,-1,8,10,12,-1,14,16,-1,-1,-1,-1,-1,-1],"split_conditions":[6.3E1,5.9E1,7.650909E-2,1E0,-9.725534E-2,4.3E1,2.8E1,1.657E3,8.59994E-2,1.308E3,1.258E3,-5.0940365E-3,-5.6035545E-2,9.693333E-2,9.905049E-3,-8.0313206E-2,9.825793E-3],"split_indices":[0,0,0,1,0,0,0,6,0,6,6,0,0,0,0,0,0],"split_type":[0,0,0,0,0,0,0,0,0,0,0,0,0,0,0,0,0],"sum_hessian":[8.190547E1,7.916706E1,2.738412E0,7.7897E1,1.2700586E0,2.5824682E1,5.207232E1,2.3285257E1,2.5394237E0,1.58136E1,3.625872E1,1.0025604E1,1.3259653E1,4.429147E0,1.1384453E1,5.500974E0,3.0757746E1],"tree_param":{"num_deleted":"0","num_feature":"8","num_nodes":"17","size_leaf_vector":"1"}},{"base_weights":[6.2882425E-3,8.780627E-2,-2.0798403E-1,4.7088567E-2,2.7550635E-1,-3.8871336E-1,-9.3689315E-2,1.6957347E-1,-1.0257723E-1,-2.2566332E-1,8.651554E-2,-1.8957949E-1,-6.9442935E-2,1.2879695E-1,-4.332122E-1,6.0973883E-2,7.327877E-2,-3.1744748E-1,1.8722625E-1,-4.1581858E-2,-7.1614645E-2,-5.8354568E-2,1.5508463E-2,-2.1795584E-2,4.5020696E-2,-2.6644211E-2,-5.5550617E-1,5.996313E-2,-5.5074864E-3,-6.937062E-2,-1.4324058E-2,4.447913E-2,-6.062639E-2,8.9106215E-3,-2.3177272E-2,-9.441098E-2,-1.8348498E-2],"categories":[],"categories_nodes":[],"categories_segments":[],"categories_sizes":[],"default_left":[0,0,0,0,0,0,0,0,0,0,0,0,0,0,0,0,0,0,0,0,0,0,0,0,0,0,0,0,0,0,0,0,0,0,0,0,0],"id":37,"left_children":[1,3,5,7,9,11,13,15,17,19,-1,21,-1,23,25,27,-1,29,31,-1,33,-1,-1,-1,-1,-1,35,-1,-1,-1,-1,-1,-1,-1,-1,-1,-1],"loss_changes":[1.4752359E0,4.5420918E-1,4.4456375E-1,9.6033305E-1,2.2348056E0,1.4975E-1,1.232825E0,1.1902013E0,1.5397896E0,5.540812E-2,0E0,4.6991467E-1,0E0,7.127584E-1,6.509149E-2,9.9304366E-1,0E0,5.680251E-1,1.2435127E0,0E0,6.1975777E-2,0E0,0E0,0E0,0E0,0E0,1.5001142E-1,0E0,0E0,0E0,0E0,0E0,0E0,0E0,0E0,0E0,0E0],"parents":[2147483647,0,0,1,1,2,2,3,3,4,4,5,5,6,6,7,7,8,8,9,9,11,11,13,13,14,14,15,15,17,17,18,18,20,20,26,26],"right_children":[2,4,6,8,10,12,14,16,18,20,-1,22,-1,24,26,28,-1,30,32,-1,34,-1,-1,-1,-1,-1,36,-1,-1,-1,-1,-1,-1,-1,-1,-1,-1],"split_conditions":[2.6E1,1E0,3.6E1,1.6E1,1.6E1,1E0,4.5E1,1.3E1,1E0,2E0,8.651554E-2,3E1,-6.9442935E-2,1E0,1E0,9E0,7.327877E-2,2.1E1,2E0,-4.1581858E-2,3E0,-5.8354568E-2,1.5508463E-2,-2.1795584E-2,4.5020696E-2,-2.6644211E-2,1E0,5.996313E-2,-5.5074864E-3,-6.937062E-2,-1.4324058E-2,4.447913E-2,-6.062639E-2,8.9106215E-3,-2.3177272E-2,-9.441098E-2,-1.8348498E-2],"split_indices":[7,4,7,7,7,5,7,7,5,4,0,7,0,5,5,7,0,7,5,0,4,0,0,0,0,0,4,0,0,0,0,0,0,0,0,0,0],"split_type":[0,0,0,0,0,0,0,0,0,0,0,0,0,0,0,0,0,0,0,0,0,0,0,0,0,0,0,0,0,0,0,0,0,0,0,0,0],"sum_hessian":[8.2412674E1,6.0127792E1,2.2284885E1,5.0437317E1,9.6904745E0,7.703189E0,1.4581696E1,2.7664207E1,2.277311E1,4.4190516E0,5.2714233E0,4.2148438E0,3.4883451E0,9.184095E0,5.3976007E0,2.2584248E1,5.079959E0,1.3022438E1,9.75067E0,2.079517E0,2.3395348E0,2.047171E0,2.1676724E0,3.9804177E0,5.2036777E0,2.8136203E0,2.5839806E0,3.9271932E0,1.8657055E1,5.6172953E0,7.4051423E0,8.270779E0,1.4798925E0,1.164272E0,1.1752628E0,1.3014153E0,1.2825651E0],"tree_param":{"num_deleted":"0","num_feature":"8","num_nodes":"37","size_leaf_vector":"1"}},{"base_weights":[8.52955E-3,3.0267496E-2,-6.394044E-2,-1.0103357E-1,8.5317634E-2,6.833833E-2,-3.982005E-1,4.5883632E-1,1.17859775E-2,4.2171967E-1,-2.2085653E-1,-6.192011E-1,3.201197E-2,1.097835E-1,7.8982544E-1,-3.7148744E-1,9.803071E-2,-2.7500927E-2,1.21751E-1,-9.422421E-2,1.4140168E-2,-1.11093454E-1,-3.9559223E-2,-4.9462076E-2,4.5978513E-2,2.3208706E-2,1.250996E-1,-2.222174E-2,-1.014667E-1,1.0755654E-1,7.27109E-3],"categories":[],"categories_nodes":[],"categories_segments":[],"categories_sizes":[],"default_left":[0,0,0,0,0,0,0,0,0,0,0,0,0,0,0,0,0,0,0,0,0,0,0,0,0,0,0,0,0,0,0],"id":38,"left_children":[1,3,-1,5,7,9,11,13,15,17,19,21,-1,23,25,27,29,-1,-1,-1,-1,-1,-1,-1,-1,-1,-1,-1,-1,-1,-1],"loss_changes":[9.201616E-1,5.926837E-1,0E0,1.2516947E0,1.5731933E0,1.76401E0,1.4303907E0,1.0024604E0,1.6577313E0,2.7015064E0,1.6775258E0,2.5535607E-1,0E0,8.197416E-1,3.1839776E-1,6.22071E-1,1.2078158E0,0E0,0E0,0E0,0E0,0E0,0E0,0E0,0E0,0E0,0E0,0E0,0E0,0E0,0E0],"parents":[2147483647,0,0,1,1,3,3,4,4,5,5,6,6,7,7,8,8,9,9,10,10,11,11,13,13,14,14,15,15,16,16],"right_children":[2,4,-1,6,8,10,12,14,16,18,20,22,-1,24,26,28,30,-1,-1,-1,-1,-1,-1,-1,-1,-1,-1,-1,-1,-1,-1],"split_conditions":[1.0961E4,1.377E3,-6.394044E-2,1.207E3,1.882E3,2.8E1,3.9E1,3E1,2.323E3,7.81E2,3.7E1,1.289E3,3.201197E-2,2E0,1E0,3.7E1,2.359E3,-2.7500927E-2,1.21751E-1,-9.422421E-2,1.4140168E-2,-1.11093454E-1,-3.9559223E-2,-4.9462076E-2,4.5978513E-2,2.3208706E-2,1.250996E-1,-2.222174E-2,-1.014667E-1,1.0755654E-1,7.27109E-3],"split_indices":[6,6,0,6,6,0,0,0,6,6,0,6,0,2,1,0,6,0,0,0,0,0,0,0,0,0,0,0,0,0,0],"split_type":[0,0,0,0,0,0,0,0,0,0,0,0,0,0,0,0,0,0,0,0,0,0,0,0,0,0,0,0,0,0,0],"sum_hessian":[8.233611E1,7.980413E1,2.5319772E0,2.332824E1,5.6475895E1,1.5349655E1,7.9785843E0,8.427377E0,4.804852E1,6.7019544E0,8.6477E0,5.969218E0,2.0093663E0,4.749917E0,3.6774597E0,8.218402E0,3.9830116E1,3.2657251E0,3.4362295E0,2.9489284E0,5.698772E0,2.4455824E0,3.5236354E0,1.3908193E0,3.359098E0,1.2509093E0,2.4265504E0,6.4585714E0,1.7598304E0,1.1625537E0,3.866756E1],"tree_param":{"num_deleted":"0","num_feature":"8","num_nodes":"31","size_leaf_vector":"1"}},{"base_weights":[8.1402175E-3,-2.6450066E-2,3.344956E-1,6.934058E-2,-1.2997867E-1,8.71352E-2,7.9287104E-2,1.2941287E-4,2.762283E-1,-8.594025E-2,-3.7643185E-1,3.67263E-1,-5.591206E-2,-2.0065983E-1,1.4091899E-1,-1.592769E-1,6.3815707E-1,-1.7048973E-1,1.1714541E-1,3.0435696E-3,-8.1243075E-2,4.7170096E-3,8.258853E-2,-4.5888685E-2,4.71126E-2,7.875228E-2,-1.4926144E-2,-5.831892E-2,2.7520778E-2,1.2424686E-1,4.31419E-2,4.4246357E-2,-2.8781185E-2,-4.7548648E-2,6.840949E-2],"categories":[],"categories_nodes":[],"categories_segments":[],"categories_sizes":[],"default_left":[0,0,0,0,0,0,0,0,0,0,0,0,0,0,0,0,0,0,0,0,0,0,0,0,0,0,0,0,0,0,0,0,0,0,0],"id":39,"left_children":[1,3,5,7,9,11,-1,13,15,17,19,21,-1,23,25,27,29,31,33,-1,-1,-1,-1,-1,-1,-1,-1,-1,-1,-1,-1,-1,-1,-1,-1],"loss_changes":[9.364962E-1,7.550395E-1,4.868223E-1,5.6879264E-1,3.6380887E-1,9.318478E-1,0E0,8.980537E-1,1.6712036E0,5.739573E-1,5.3328735E-1,3.3144504E-1,0E0,1.2463363E0,2.2842424E0,6.641223E-1,2.3070955E-1,6.7413825E-1,2.1771917E0,0E0,0E0,0E0,0E0,0E0,0E0,0E0,0E0,0E0,0E0,0E0,0E0,0E0,0E0,0E0,0E0],"parents":[2147483647,0,0,1,1,2,2,3,3,4,4,5,5,7,7,8,8,9,9,10,10,11,11,13,13,14,14,15,15,16,16,17,17,18,18],"right_children":[2,4,6,8,10,12,-1,14,16,18,20,22,-1,24,26,28,30,32,34,-1,-1,-1,-1,-1,-1,-1,-1,-1,-1,-1,-1,-1,-1,-1,-1],"split_conditions":[2E0,1.9E1,2.2E1,1.8E1,4.8E1,1.3E1,7.9287104E-2,1E0,1E0,3.6E1,3.2E1,3.5E1,-5.591206E-2,3.6E1,1.2E1,2.7E1,3.1E1,2.3E1,3.2E1,3.0435696E-3,-8.1243075E-2,4.7170096E-3,8.258853E-2,-4.5888685E-2,4.71126E-2,7.875228E-2,-1.4926144E-2,-5.831892E-2,2.7520778E-2,1.2424686E-1,4.31419E-2,4.4246357E-2,-2.8781185E-2,-4.7548648E-2,6.840949E-2],"split_indices":[5,7,7,7,7,7,0,1,5,7,0,0,0,0,7,0,0,0,0,0,0,0,0,0,0,0,0,0,0,0,0,0,0,0,0],"split_type":[0,0,0,0,0,0,0,0,0,0,0,0,0,0,0,0,0,0,0,0,0,0,0,0,0,0,0,0,0,0,0,0,0,0,0],"sum_hessian":[8.1174805E1,7.422652E1,6.948287E0,3.8725594E1,3.5500927E1,4.3485074E0,2.5997796E0,2.9767838E1,8.957755E0,3.1263245E1,4.2376823E0,3.0072043E0,1.3413031E0,1.2094224E1,1.7673613E1,4.3197575E0,4.6379976E0,2.2186832E1,9.076412E0,1.9674853E0,2.2701974E0,1.8504034E0,1.1568009E0,9.817462E0,2.2767618E0,5.791231E0,1.1882381E1,2.3110602E0,2.008697E0,1.2436374E0,3.3943603E0,1.4859722E0,2.070086E1,4.209441E0,4.866971E0],"tree_param":{"num_deleted":"0","num_feature":"8","num_nodes":"35","size_leaf_vector":"1"}},{"base_weights":[-2.6409574E-2,4.5564387E-2,-2.077834E-1,8.633263E-2,-9.621706E-2,-1.2052747E-1,-9.0735584E-2,-9.568671E-5,5.4119986E-1,-5.8415896E-1,1.7913258E-2,6.0038187E-2,-5.870872E-1,-1.2261606E-2,1.1210071E-1,-1.22317426E-1,7.4938424E-3,1.0433904E-1,-1.10159926E-1,2.0305258E-3,8.061031E-2,6.528172E-3,-1.2601659E-1,1.05290085E-1,-7.7205196E-2,-6.664892E-2,1.5566912E-2],"categories":[],"categories_nodes":[],"categories_segments":[],"categories_sizes":[],"default_left":[0,0,0,0,0,0,0,0,0,0,0,0,0,0,0,0,0,0,0,0,0,0,0,0,0,0,0],"id":40,"left_children":[1,3,5,7,-1,-1,9,11,13,15,17,19,21,23,-1,-1,-1,-1,25,-1,-1,-1,-1,-1,-1,-1,-1],"loss_changes":[1.0707662E0,1.9520684E0,1.8724993E0,2.2410567E0,0E0,0E0,1.1428589E0,1.7613827E0,1.622477E0,9.3050504E-1,1.9230735E0,1.115242E0,1.1743361E0,2.5403228E0,0E0,0E0,0E0,0E0,1.5931157E0,0E0,0E0,0E0,0E0,0E0,0E0,0E0,0E0],"parents":[2147483647,0,0,1,1,2,2,3,3,6,6,7,7,8,8,9,9,10,10,11,11,12,12,13,13,18,18],"right_children":[2,4,6,8,-1,-1,10,12,14,16,18,20,22,24,-1,-1,-1,-1,26,-1,-1,-1,-1,-1,-1,-1,-1],"split_conditions":[2.6E1,6.85E3,2.315E3,3.59E3,-9.621706E-2,-1.2052747E-1,2E0,3.114E3,1E0,3.9E1,2.577E3,2.892E3,1.9E1,3.913E3,1.1210071E-1,-1.22317426E-1,7.4938424E-3,1.0433904E-1,4.473E3,2.0305258E-3,8.061031E-2,6.528172E-3,-1.2601659E-1,1.05290085E-1,-7.7205196E-2,-6.664892E-2,1.5566912E-2],"split_indices":[7,6,6,6,0,0,2,6,1,7,6,6,7,6,0,0,0,0,6,0,0,0,0,0,0,0,0],"split_type":[0,0,0,0,0,0,0,0,0,0,0,0,0,0,0,0,0,0,0,0,0,0,0,0,0,0,0],"sum_hessian":[8.0299446E1,5.8023113E1,2.227633E1,5.600358E1,2.0195358E0,2.1534593E0,2.0122871E1,4.7901676E1,8.101902E0,2.841547E0,1.7281326E1,4.426473E1,3.6369457E0,3.3203917E0,4.7815104E0,1.5297896E0,1.3117574E0,1.6889012E0,1.5592424E1,4.1958374E1,2.3063545E0,1.6857734E0,1.9511724E0,1.2130221E0,2.1073697E0,5.2249436E0,1.036748E1],"tree_param":{"num_deleted":"0","num_feature":"8","num_nodes":"27","size_leaf_vector":"1"}},{"base_weights":[-8.085201E-3,-4.1964144E-2,3.278436E-1,-9.3354456E-2,5.978411E-2,6.1931506E-2,1.1096439E-1,-2.2319633E-1,5.7377126E-2,2.5968125E-1,-2.2895263E-1,-3.5596088E-2,6.091451E-2,-2.3318603E-4,-7.8788266E-2,-2.4446414E-1,2.1902606E-1,7.244288E-2,-4.2218547E-2,-9.406429E-2,-5.117107E-1,-2.4598917E-2,4.6395972E-2,-1.6827544E-3,-9.211431E-2,4.7785226E-2,-2.3986572E-2,-2.5241802E-2,4.1965257E-2,-3.8291503E-2,6.46044E-2,-1.20100014E-1,1.1302578E-2],"categories":[],"categories_nodes":[],"categories_segments":[],"categories_sizes":[],"default_left":[0,0,0,0,0,0,0,0,0,0,0,0,0,0,0,0,0,0,0,0,0,0,0,0,0,0,0,0,0,0,0,0,0],"id":41,"left_children":[1,3,5,7,9,-1,11,13,15,17,19,-1,-1,21,-1,23,25,-1,27,29,31,-1,-1,-1,-1,-1,-1,-1,-1,-1,-1,-1,-1],"loss_changes":[9.303049E-1,3.9273936E-1,1.8754572E-1,9.832593E-1,1.5287601E0,0E0,7.238258E-1,2.2865715E0,1.2119899E0,1.4135374E0,3.693421E-1,0E0,0E0,1.2757708E0,0E0,9.2955154E-1,1.0224609E0,0E0,5.392445E-1,1.1661508E0,8.941958E-1,0E0,0E0,0E0,0E0,0E0,0E0,0E0,0E0,0E0,0E0,0E0,0E0],"parents":[2147483647,0,0,1,1,2,2,3,3,4,4,6,6,7,7,8,8,9,9,10,10,13,13,15,15,16,16,18,18,19,19,20,20],"right_children":[2,4,6,8,10,-1,12,14,16,18,20,-1,-1,22,-1,24,26,-1,28,30,32,-1,-1,-1,-1,-1,-1,-1,-1,-1,-1,-1,-1],"split_conditions":[2E0,3.6E1,3.2E1,1E0,1E0,6.1931506E-2,3.9E1,2.9E1,2.6E1,4.5E1,5.6E1,-3.5596088E-2,6.091451E-2,2.7E1,-7.8788266E-2,2.5E1,3E0,7.244288E-2,5.8E1,4.8E1,6.3E1,-2.4598917E-2,4.6395972E-2,-1.6827544E-3,-9.211431E-2,4.7785226E-2,-2.3986572E-2,-2.5241802E-2,4.1965257E-2,-3.8291503E-2,6.46044E-2,-1.20100014E-1,1.1302578E-2],"split_indices":[5,0,0,5,5,0,0,0,0,0,0,0,0,0,0,0,2,0,0,0,0,0,0,0,0,0,0,0,0,0,0,0,0],"split_type":[0,0,0,0,0,0,0,0,0,0,0,0,0,0,0,0,0,0,0,0,0,0,0,0,0,0,0,0,0,0,0,0,0],"sum_hessian":[7.953372E1,7.3042366E1,6.4913554E0,4.8585587E1,2.4456778E1,3.14948E0,3.3418756E0,2.5843204E1,2.2742382E1,1.4511122E1,9.945657E0,1.7217962E0,1.6200794E0,1.6951511E1,8.891693E0,7.753058E0,1.4989323E1,6.891619E0,7.6195025E0,7.6357346E0,2.309922E0,1.1392705E1,5.5588064E0,5.854412E0,1.8986462E0,1.1029582E1,3.9597406E0,5.7114153E0,1.9080869E0,6.077547E0,1.5581872E0,1.0485655E0,1.2613564E0],"tree_param":{"num_deleted":"0","num_feature":"8","num_nodes":"33","size_leaf_vector":"1"}},{"base_weights":[-2.142446E-2,6.297696E-3,-3.661695E-1,-1.0255226E-2,7.2752215E-2,-1.0362533E-1,-6.229837E-2,7.154307E-2,-1.1585775E-1,8.174446E-2,-7.603021E-2,-1.8589405E-2,3.1594384E-1,1.1815444E-2,-2.7575192E-1,2.3613496E-2,-2.9874278E-2,8.093112E-2,8.225616E-3,-3.1067118E-2,3.576478E-2,-1.1101298E-1,-1.9222794E-2],"categories":[],"categories_nodes":[],"categories_segments":[],"categories_sizes":[],"default_left":[0,0,0,0,0,0,0,0,0,0,0,0,0,0,0,0,0,0,0,0,0,0,0],"id":42,"left_children":[1,3,5,7,-1,-1,9,11,13,-1,-1,15,17,19,21,-1,-1,-1,-1,-1,-1,-1,-1],"loss_changes":[7.701546E-1,6.9493824E-1,7.337885E-1,6.486951E-1,0E0,0E0,2.0229583E0,9.3978E-1,6.716571E-1,0E0,0E0,1.3879308E0,8.478321E-1,1.3277289E0,9.51507E-1,0E0,0E0,0E0,0E0,0E0,0E0,0E0,0E0],"parents":[2147483647,0,0,1,1,2,2,3,3,6,6,7,7,8,8,11,11,12,12,13,13,14,14],"right_children":[2,4,6,8,-1,-1,10,12,14,-1,-1,16,18,20,22,-1,-1,-1,-1,-1,-1,-1,-1],"split_conditions":[4.5E1,4.2E1,2.6E1,1.9E1,7.2752215E-2,-1.0362533E-1,3.2E1,3.8E1,3.3E1,8.174446E-2,-7.603021E-2,2.8E1,4.5E1,1E0,3.4E1,2.3613496E-2,-2.9874278E-2,8.093112E-2,8.225616E-3,-3.1067118E-2,3.576478E-2,-1.1101298E-1,-1.9222794E-2],"split_indices":[7,7,0,7,0,0,0,0,0,0,0,0,0,5,0,0,0,0,0,0,0,0,0],"split_type":[0,0,0,0,0,0,0,0,0,0,0,0,0,0,0,0,0,0,0,0,0,0,0],"sum_hessian":[7.934346E1,7.434671E1,4.9967465E0,7.313735E1,1.2093614E0,1.3984822E0,3.5982645E0,4.139549E1,3.1741861E1,1.4614081E0,2.1368563E0,3.0917408E1,1.0478081E1,1.816415E1,1.357771E1,1.5941256E1,1.4976153E1,4.0809913E0,6.3970895E0,9.34972E0,8.814431E0,1.4383701E0,1.213934E1],"tree_param":{"num_deleted":"0","num_feature":"8","num_nodes":"23","size_leaf_vector":"1"}},{"base_weights":[-1.3353254E-2,2.7366266E-2,-5.022099E-1,-1.2848411E-2,3.3569473E-1,1.3426787E-2,-8.6546965E-2,4.6886843E-2,-5.1923305E-1,8.912628E-2,1.3580537E-1,4.83817E-3,4.23965E-1,-9.485428E-2,-2.851621E-1,-1.2947881E-1,7.3807895E-2,7.1771997E-3,-5.6177694E-2,9.298815E-2,-4.5282496E-3,4.6402637E-2,-8.048684E-2,5.0985375E-3,-4.6812292E-2],"categories":[],"categories_nodes":[],"categories_segments":[],"categories_sizes":[],"default_left":[0,0,0,0,0,0,0,0,0,0,0,0,0,0,0,0,0,0,0,0,0,0,0,0,0],"id":43,"left_children":[1,3,5,7,9,-1,-1,11,13,-1,15,17,19,-1,21,23,-1,-1,-1,-1,-1,-1,-1,-1,-1],"loss_changes":[1.6055107E0,9.313363E-1,6.791003E-1,2.0540812E0,5.113495E-1,0E0,0E0,9.6415615E-1,1.4339614E-1,0E0,8.46197E-1,1.2494246E0,8.377377E-1,0E0,1.2947328E0,2.0801663E-1,0E0,0E0,0E0,0E0,0E0,0E0,0E0,0E0,0E0],"parents":[2147483647,0,0,1,1,2,2,3,3,4,4,7,7,8,8,10,10,11,11,12,12,14,14,15,15],"right_children":[2,4,6,8,10,-1,-1,12,14,-1,16,18,20,-1,22,24,-1,-1,-1,-1,-1,-1,-1,-1,-1],"split_conditions":[7.763E3,5.293E3,1E0,4.057E3,5.998E3,1.3426787E-2,-8.6546965E-2,3.59E3,4.37E3,8.912628E-2,6.948E3,3.114E3,3.913E3,-9.485428E-2,4.605E3,6.56E3,7.3807895E-2,7.1771997E-3,-5.6177694E-2,9.298815E-2,-4.5282496E-3,4.6402637E-2,-8.048684E-2,5.0985375E-3,-4.6812292E-2],"split_indices":[6,6,1,6,6,0,0,6,6,0,6,6,6,0,6,6,0,0,0,0,0,0,0,0,0],"split_type":[0,0,0,0,0,0,0,0,0,0,0,0,0,0,0,0,0,0,0,0,0,0,0,0,0],"sum_hessian":[7.896416E1,7.376398E1,5.200181E0,6.610089E1,7.6630807E0,1.1788548E0,4.0213265E0,5.993779E1,6.163104E0,1.9074665E0,5.7556143E0,5.483578E1,5.1020074E0,2.137375E0,4.0257287E0,3.996569E0,1.7590456E0,4.995215E1,4.883633E0,2.7831273E0,2.3188798E0,1.3519495E0,2.6737795E0,2.7853184E0,1.2112503E0],"tree_param":{"num_deleted":"0","num_feature":"8","num_nodes":"25","size_leaf_vector":"1"}},{"base_weights":[-8.148662E-3,2.449867E-2,-4.3668473E-1,-6.6360566E-3,3.0531883E-1,-1.24292215E-2,-8.893084E-2,-2.2185009E-2,3.1126773E-1,-4.0013943E-2,4.6877798E-1,4.359484E-2,-4.9823698E-2,-2.590084E-2,8.8721514E-2,9.64307E-2,1.4176907E-1,-8.297595E-3,4.5466382E-2,5.8576097E-3,2.4842674E-2],"categories":[],"categories_nodes":[],"categories_segments":[],"categories_sizes":[],"default_left":[0,0,0,0,0,0,0,0,0,0,0,0,0,0,0,0,0,0,0,0,0],"id":44,"left_children":[1,3,5,7,9,-1,-1,11,13,-1,15,-1,17,-1,-1,-1,19,-1,-1,-1,-1],"loss_changes":[1.1181905E0,6.53426E-1,4.1054487E-1,3.432618E-1,8.9095336E-1,0E0,0E0,6.661623E-1,7.47718E-1,0E0,4.5384467E-1,0E0,3.664306E-1,0E0,0E0,0E0,1.0834612E-2,0E0,0E0,0E0,0E0],"parents":[2147483647,0,0,1,1,2,2,3,3,4,4,7,7,8,8,10,10,12,12,16,16],"right_children":[2,4,6,8,10,-1,-1,12,14,-1,16,-1,18,-1,-1,-1,20,-1,-1,-1,-1],"split_conditions":[4.5E1,2E0,1E0,3E0,2E0,-1.24292215E-2,-8.893084E-2,9E0,1.6E1,-4.0013943E-2,1.6E1,4.359484E-2,4.2E1,-2.590084E-2,8.8721514E-2,9.64307E-2,2.6E1,-8.297595E-3,4.5466382E-2,5.8576097E-3,2.4842674E-2],"split_indices":[7,5,5,4,2,0,0,7,7,0,7,0,7,0,0,0,7,0,0,0,0],"split_type":[0,0,0,0,0,0,0,0,0,0,0,0,0,0,0,0,0,0,0,0,0],"sum_hessian":[7.815998E1,7.35031E1,4.6568837E0,6.704603E1,6.45707E0,2.5351422E0,2.1217415E0,6.4806496E1,2.2395277E0,1.1743914E0,5.2826786E0,3.8570127E0,6.0949486E1,1.1363896E0,1.1031381E0,2.1930282E0,3.0896504E0,5.9707283E1,1.2422019E0,1.6846998E0,1.4049505E0],"tree_param":{"num_deleted":"0","num_feature":"8","num_nodes":"21","size_leaf_vector":"1"}},{"base_weights":[-3.4458889E-3,9.7580224E-2,-1.283586E-1,1.359211E-1,-8.649789E-2,-2.5894088E-1,1.7900577E-1,-3.7944894E-2,3.3596304E-1,-5.0568063E-2,-4.9674568E-1,3.8401687E-1,-3.1291127E-1,-6.241499E-2,1.2058595E-2,5.105824E-1,-1.4472671E-1,-2.7078825E-1,1.2728195E-1,-1.0771358E-1,-3.1650633E-1,9.492851E-2,-9.448549E-2,-8.487435E-2,1.1786596E-2,-2.2711E-2,2.1377075E-2,-4.0965145E-3,7.2492845E-2,3.6202986E-2,-5.272585E-2,-3.0278643E-3,-5.2089293E-2,3.6335144E-2,-6.83035E-2,-5.8213707E-2,2.9057655E-2],"categories":[],"categories_nodes":[],"categories_segments":[],"categories_sizes":[],"default_left":[0,0,0,0,0,0,0,0,0,0,0,0,0,0,0,0,0,0,0,0,0,0,0,0,0,0,0,0,0,0,0,0,0,0,0,0,0],"id":45,"left_children":[1,3,5,7,-1,9,11,13,15,17,19,21,23,-1,25,27,29,31,-1,-1,33,-1,35,-1,-1,-1,-1,-1,-1,-1,-1,-1,-1,-1,-1,-1,-1],"loss_changes":[1.0175492E0,1.3934226E0,1.492964E0,1.5184758E0,0E0,1.2485886E0,1.2635846E0,5.369921E-1,1.7721453E0,3.619537E0,4.4693637E-1,1.4651337E0,5.907434E-1,0E0,6.697674E-1,3.9571524E-1,7.918711E-1,4.064741E-1,0E0,0E0,1.3018564E0,0E0,5.960013E-1,0E0,0E0,0E0,0E0,0E0,0E0,0E0,0E0,0E0,0E0,0E0,0E0,0E0,0E0],"parents":[2147483647,0,0,1,1,2,2,3,3,5,5,6,6,7,7,8,8,9,9,10,10,11,11,12,12,14,14,15,15,16,16,17,17,20,20,22,22],"right_children":[2,4,6,8,-1,10,12,14,16,18,20,22,24,-1,26,28,30,32,-1,-1,34,-1,36,-1,-1,-1,-1,-1,-1,-1,-1,-1,-1,-1,-1,-1,-1],"split_conditions":[2.2E1,6.38E3,5.293E3,1.526E3,-8.649789E-2,3.031E3,4.8E1,1E0,2E0,2.779E3,3.496E3,8.065E3,7.476E3,-6.241499E-2,9.76E2,1E1,1.3E1,1.778E3,1.2728195E-1,-1.0771358E-1,3.872E3,9.492851E-2,1.055E4,-8.487435E-2,1.1786596E-2,-2.2711E-2,2.1377075E-2,-4.0965145E-3,7.2492845E-2,3.6202986E-2,-5.272585E-2,-3.0278643E-3,-5.2089293E-2,3.6335144E-2,-6.83035E-2,-5.8213707E-2,2.9057655E-2],"split_indices":[7,6,6,6,0,6,7,3,3,6,6,6,6,0,6,7,7,6,0,0,6,0,6,0,0,0,0,0,0,0,0,0,0,0,0,0,0],"split_type":[0,0,0,0,0,0,0,0,0,0,0,0,0,0,0,0,0,0,0,0,0,0,0,0,0,0,0,0,0,0,0,0,0,0,0,0,0],"sum_hessian":[7.864089E1,4.3598434E1,3.5042454E1,4.22923E1,1.306133E0,2.4704437E1,1.03380165E1,2.3060038E1,1.9232264E1,1.3813349E1,1.08910885E1,7.4517674E0,2.8862488E0,1.4721016E0,2.1587936E1,1.40618515E1,5.170412E0,1.1983776E1,1.8295726E0,2.575028E0,8.316061E0,4.024217E0,3.4275503E0,1.2334446E0,1.6528043E0,9.632926E0,1.195501E1,1.1323199E0,1.2929532E1,1.9441555E0,3.2262566E0,4.5184436E0,7.4653325E0,2.0658062E0,6.2502546E0,1.4311243E0,1.996426E0],"tree_param":{"num_deleted":"0","num_feature":"8","num_nodes":"37","size_leaf_vector":"1"}},{"base_weights":[-1.37805985E-2,2.391907E-1,-3.475442E-2,5.624228E-2,-9.677731E-3,-1.2839144E-1,3.0239737E-2,2.8490147E-3,-4.8655084E-1,4.5110703E-1,-1.651325E-2,-8.877742E-2,6.737894E-2,-5.838891E-1,6.464672E-3,7.96623E-2,5.003403E-3,-5.7339966E-2,4.0986532E-1,-1.6077679E-2,4.4742387E-2,-2.5355678E-2,-8.3561756E-2,-2.638081E-2,7.860849E-3,9.5358565E-2,-2.3522068E-2],"categories":[],"categories_nodes":[],"categories_segments":[],"categories_sizes":[],"default_left":[0,0,0,0,0,0,0,0,0,0,0,0,0,0,0,0,0,0,0,0,0,0,0,0,0,0,0],"id":46,"left_children":[1,3,5,-1,-1,7,9,11,13,15,17,-1,19,21,-1,-1,-1,23,25,-1,-1,-1,-1,-1,-1,-1,-1],"loss_changes":[4.2627212E-1,4.0451568E-1,4.519014E-1,0E0,0E0,1.4281119E0,8.7841827E-1,1.0715666E0,4.5413792E-1,2.7262372E-1,7.3378384E-1,0E0,1.209251E0,3.2442093E-2,0E0,0E0,0E0,6.643279E-1,8.3527076E-1,0E0,0E0,0E0,0E0,0E0,0E0,0E0,0E0],"parents":[2147483647,0,0,1,1,2,2,5,5,6,6,7,7,8,8,9,9,10,10,12,12,13,13,17,17,18,18],"right_children":[2,4,6,-1,-1,8,10,12,14,16,18,-1,20,22,-1,-1,-1,24,26,-1,-1,-1,-1,-1,-1,-1,-1],"split_conditions":[2.3E1,2E0,3E1,5.624228E-2,-9.677731E-3,2.8E1,3.1E1,1E0,3E0,3E0,2E0,-8.877742E-2,2.6E1,2E0,6.464672E-3,7.96623E-2,5.003403E-3,3.8E1,5.5E1,-1.6077679E-2,4.4742387E-2,-2.5355678E-2,-8.3561756E-2,-2.638081E-2,7.860849E-3,9.5358565E-2,-2.3522068E-2],"split_indices":[0,3,0,0,0,0,0,2,2,2,4,0,0,2,0,0,0,0,0,0,0,0,0,0,0,0,0],"split_type":[0,0,0,0,0,0,0,0,0,0,0,0,0,0,0,0,0,0,0,0,0,0,0,0,0,0,0],"sum_hessian":[7.7774376E1,5.1580014E0,7.261638E1,2.9594483E0,2.198553E0,2.9352636E1,4.326374E1,2.2207266E1,7.14537E0,3.4608319E0,3.980291E1,1.0883019E0,2.1118965E1,5.972312E0,1.173058E0,2.1425862E0,1.3182456E0,3.711462E1,2.6882904E0,1.2817759E1,8.301207E0,1.3407655E0,4.6315465E0,1.6287764E1,2.0826857E1,1.5829111E0,1.1053792E0],"tree_param":{"num_deleted":"0","num_feature":"8","num_nodes":"27","size_leaf_vector":"1"}},{"base_weights":[4.0528392E-3,-1.3592583E-1,6.157903E-2,-2.3181918E-1,4.1563937E-1,4.0568894E-1,-9.1299135E-3,-2.2885967E-2,-5.5184186E-1,2.656706E-3,7.314545E-2,1.4323406E-1,1.0670528E-1,6.515783E-2,-2.7821916E-1,3.3794162E-1,-4.0370488E-1,-1.2145887E-1,-2.8264874E-1,1.0733414E-1,-1.16191104E-1,-7.2975814E-2,1.0063489E-1,-4.8809955E-1,1.3851978E-1,-1.53430505E-2,1.4149188E-1,1.2402604E-2,-8.444156E-2,2.6762608E-2,-9.275752E-2,-4.7560215E-2,3.562803E-2,3.8231898E-2,-1.0245834E-2,-9.168488E-2,9.893353E-3,-1.8959977E-2,5.441426E-2],"categories":[],"categories_nodes":[],"categories_segments":[],"categories_sizes":[],"default_left":[0,0,0,0,0,0,0,0,0,0,0,0,0,0,0,0,0,0,0,0,0,0,0,0,0,0,0,0,0,0,0,0,0,0,0,0,0,0,0],"id":47,"left_children":[1,3,5,7,9,11,13,15,17,-1,-1,19,-1,21,23,25,27,-1,29,-1,31,-1,33,35,37,-1,-1,-1,-1,-1,-1,-1,-1,-1,-1,-1,-1,-1,-1],"loss_changes":[6.3675755E-1,1.3150342E0,1.366172E0,1.3427289E0,2.0652473E-1,9.2219687E-1,9.662318E-1,1.9649603E0,5.535121E-1,0E0,0E0,1.3449321E0,0E0,8.995532E-1,9.8168737E-1,2.6468167E0,9.089656E-1,0E0,1.4274195E0,